{"learner":{"attributes":{"scikit_learn":"{\"_estimator_type\": \"classifier\"}"},"feature_names":["long","lat","B4","B3","B2","B8","B11","B12","NDVI","EVI","SAVI","NDWI","NBR","CIgreen"],"feature_types":["float","float","float","float","float","float","float","float","float","float","float","float","float","float"],"gradient_booster":{"model":{"gbtree_model_param":{"num_parallel_tree":"1","num_trees":"150"},"iteration_indptr":[0,1,2,3,4,5,6,7,8,9,10,11,12,13,14,15,16,17,18,19,20,21,22,23,24,25,26,27,28,29,30,31,32,33,34,35,36,37,38,39,40,41,42,43,44,45,46,47,48,49,50,51,52,53,54,55,56,57,58,59,60,61,62,63,64,65,66,67,68,69,70,71,72,73,74,75,76,77,78,79,80,81,82,83,84,85,86,87,88,89,90,91,92,93,94,95,96,97,98,99,100,101,102,103,104,105,106,107,108,109,110,111,112,113,114,115,116,117,118,119,120,121,122,123,124,125,126,127,128,129,130,131,132,133,134,135,136,137,138,139,140,141,142,143,144,145,146,147,148,149,150],"tree_info":[0,0,0,0,0,0,0,0,0,0,0,0,0,0,0,0,0,0,0,0,0,0,0,0,0,0,0,0,0,0,0,0,0,0,0,0,0,0,0,0,0,0,0,0,0,0,0,0,0,0,0,0,0,0,0,0,0,0,0,0,0,0,0,0,0,0,0,0,0,0,0,0,0,0,0,0,0,0,0,0,0,0,0,0,0,0,0,0,0,0,0,0,0,0,0,0,0,0,0,0,0,0,0,0,0,0,0,0,0,0,0,0,0,0,0,0,0,0,0,0,0,0,0,0,0,0,0,0,0,0,0,0,0,0,0,0,0,0,0,0,0,0,0,0,0,0,0,0,0,0],"trees":[{"base_weights":[-6.0019407E-2,-1.6308218E0,4.8600253E-1,-3.5830733E-1,-9.1121066E-1,-1.730443E0,9.070124E-1,-3.1719062E-1,-3.3309418E-1,-1.8769027E0,3.22961E-2,3.3557448E-1,1.2660124E0,-1.0161163E0,4.940483E-1,-1.2330486E-1,-3.9585748E-1,-5.937548E-1,7.918965E-1,2.0706871E-1,1.4110456E0,-2.5363752E-1,-5.674194E-2,2.1037216E-1,-5.674194E-2,-1.2613544E0,-3.5999604E-2,-5.311071E-1,1.0188214E0,-6.895209E-1,2.4258657E-1,1.3712667E-1,1.5010643E0,-5.0437767E-2,-3.2342443E-1,2.1334206E-1,-7.0116466E-1,-2.818762E-1,1.4708745E-1,1.1759539E0,-8.147338E-2,-1.0161163E0,3.22961E-2,1.8573041E-1,-1.7349252E-1,1.632568E0,5.729849E-1,1.21334136E-1,-2.398682E-1,2.8005335E-1,-4.286869E-2,-2.5363752E-1,-5.674194E-2,9.529641E-2,3.3428773E-1,2.2211246E-1,-2.3481803E-1],"categories":[],"categories_nodes":[],"categories_segments":[],"categories_sizes":[],"default_left":[0,0,0,0,0,0,0,0,0,0,0,0,0,0,0,0,0,0,0,0,0,0,0,0,0,0,0,0,0,0,0,0,0,0,0,0,0,0,0,0,0,0,0,0,0,0,0,0,0,0,0,0,0,0,0,0,0],"id":0,"left_children":[1,3,5,-1,7,9,11,-1,13,15,-1,17,19,21,23,-1,-1,25,27,29,31,-1,-1,-1,-1,33,35,37,39,41,-1,43,45,-1,-1,-1,47,-1,-1,49,-1,51,-1,-1,-1,53,55,-1,-1,-1,-1,-1,-1,-1,-1,-1,-1],"loss_changes":[1.3098512E2,2.9223862E0,1.0739758E2,0E0,3.0702624E0,5.4146385E0,1.9261566E1,0E0,4.024046E0,9.9939346E-1,0E0,1.674907E1,8.704002E0,3.3099198E-1,1.8136039E0,0E0,0E0,4.87457E0,8.39908E0,8.256868E0,5.682556E0,0E0,0E0,0E0,0E0,1.7409372E0,6.783149E0,6.0304503E0,5.562641E0,1.5503962E0,0E0,4.37539E0,4.905464E0,0E0,0E0,0E0,4.4645853E0,0E0,0E0,6.7526875E0,0E0,3.3099198E-1,0E0,0E0,0E0,1.0630188E0,8.329404E0,0E0,0E0,0E0,0E0,0E0,0E0,0E0,0E0,0E0,0E0],"parents":[2147483647,0,0,1,1,2,2,4,4,5,5,6,6,8,8,9,9,11,11,12,12,13,13,14,14,17,17,18,18,19,19,20,20,25,25,26,26,27,27,28,28,29,29,31,31,32,32,36,36,39,39,41,41,45,45,46,46],"right_children":[2,4,6,-1,8,10,12,-1,14,16,-1,18,20,22,24,-1,-1,26,28,30,32,-1,-1,-1,-1,34,36,38,40,42,-1,44,46,-1,-1,-1,48,-1,-1,50,-1,52,-1,-1,-1,54,56,-1,-1,-1,-1,-1,-1,-1,-1,-1,-1],"split_conditions":[7.029795E-1,6.239919E-1,1.494E3,-3.5830733E-1,1.0618039E2,3.3E3,3.99E3,-3.1719062E-1,1.1653783E1,2.3421532E-1,3.22961E-2,3.46E3,1.1618866E1,1.1627969E1,2.244E3,-1.2330486E-1,-3.9585748E-1,1.0616969E2,1.06134315E2,2.9748988E-1,1.522E3,-2.5363752E-1,-5.674194E-2,2.1037216E-1,-5.674194E-2,1.0611711E2,1.0618197E2,-1.4159969E-2,1.0620924E2,1.0619514E2,2.4258657E-1,1.1665981E1,1.06198944E2,-5.0437767E-2,-3.2342443E-1,2.1334206E-1,3.054E3,-2.818762E-1,1.4708745E-1,1.912E3,-8.147338E-2,2.737E3,3.22961E-2,1.8573041E-1,-1.7349252E-1,1.0611608E2,1.1660312E1,1.21334136E-1,-2.398682E-1,2.8005335E-1,-4.286869E-2,-2.5363752E-1,-5.674194E-2,9.529641E-2,3.3428773E-1,2.2211246E-1,-2.3481803E-1],"split_indices":[13,13,4,0,0,6,5,0,1,12,0,6,1,1,2,0,0,0,0,12,4,0,0,0,0,0,0,11,0,0,0,1,0,0,0,0,6,0,0,4,0,7,0,0,0,0,1,0,0,0,0,0,0,0,0,0,0],"split_type":[0,0,0,0,0,0,0,0,0,0,0,0,0,0,0,0,0,0,0,0,0,0,0,0,0,0,0,0,0,0,0,0,0,0,0,0,0,0,0,0,0,0,0,0,0,0,0,0,0,0,0,0,0,0,0,0,0],"sum_hessian":[1.5079395E2,3.8383915E1,1.12410034E2,3.0158789E1,8.225124E0,1.7447233E1,9.49628E1,2.9909544E0,5.23417E0,1.6201002E1,1.246231E0,3.738693E1,5.757587E1,2.741708E0,2.492462E0,1.7447233E0,1.445628E1,1.2213063E1,2.5173866E1,7.22814E0,5.0347733E1,1.4954772E0,1.246231E0,1.246231E0,1.246231E0,4.984924E0,7.22814E0,3.4894466E0,2.168442E1,3.9879391E0,3.2402005E0,3.4894466E0,4.6858284E1,1.7447233E0,3.2402005E0,2.492462E0,4.7356777E0,1.9939696E0,1.4954772E0,1.9690449E1,1.9939696E0,2.741708E0,1.246231E0,1.9939696E0,1.4954772E0,4.0377884E1,6.480401E0,1.246231E0,3.4894466E0,1.6948742E1,2.741708E0,1.4954772E0,1.246231E0,1.7447233E0,3.863316E1,5.23417E0,1.246231E0],"tree_param":{"num_deleted":"0","num_feature":"14","num_nodes":"57","size_leaf_vector":"1"}},{"base_weights":[2.8864058E-2,-1.4971536E0,4.2984128E-1,-3.3674774E-1,-1.1323488E0,-7.8539866E-1,9.956187E-1,-1.6591482E-1,-2.8300387E-1,-3.1891927E-1,-3.0157724E-1,2.7610755E-1,1.2730217E0,-2.1229175E-1,1.4191936E-1,-9.180857E-1,3.4285003E-1,-4.8516902E-1,7.2041476E-1,-1.4846134E-1,1.3293076E0,1.561276E-1,-1.2856479E0,-4.3425283E-1,9.9980074E-1,-1.0050083E0,2.3275526E-1,-3.891889E-1,1.1353236E0,-7.692419E-2,1.3734636E0,-1.523246E-1,1.8607344E-1,-1.8542295E-2,-1.5724835E0,-9.879532E-1,1.1762762E-1,2.789246E-1,2.3109551E-1,-1.2701075E0,4.1242816E-2,-9.4191515E-1,1.4003567E-1,1.2459552E0,2.2313138E-2,8.352688E-1,1.4525108E0,-3.5305318E-1,-8.8591464E-2,-2.9139888E-1,3.626779E-2,1.2749976E-1,-6.409066E-2,-6.49174E-2,-2.8585777E-1,-2.3027106E-1,-5.7277597E-2,3.278269E-2,2.751192E-1,2.4616794E-1,4.2858254E-2,6.856001E-2,3.04705E-1],"categories":[],"categories_nodes":[],"categories_segments":[],"categories_sizes":[],"default_left":[0,0,0,0,0,0,0,0,0,0,0,0,0,0,0,0,0,0,0,0,0,0,0,0,0,0,0,0,0,0,0,0,0,0,0,0,0,0,0,0,0,0,0,0,0,0,0,0,0,0,0,0,0,0,0,0,0,0,0,0,0,0,0],"id":1,"left_children":[1,3,5,-1,7,9,11,13,-1,-1,15,17,19,-1,-1,21,23,25,27,-1,29,31,33,35,37,39,-1,41,43,-1,45,-1,-1,-1,47,49,-1,-1,51,53,-1,55,-1,57,-1,59,61,-1,-1,-1,-1,-1,-1,-1,-1,-1,-1,-1,-1,-1,-1,-1,-1],"loss_changes":[9.124825E1,2.058487E-1,8.1939E1,0E0,3.4683151E0,1.4418289E1,1.5811897E1,4.0465593E0,0E0,0E0,1.0266779E1,8.403341E0,7.5852585E0,0E0,0E0,5.3628407E0,7.0583987E0,9.203897E0,7.549287E0,0E0,4.8381195E0,3.710518E0,3.2243767E0,4.340716E0,1.903636E0,2.7224164E0,0E0,3.6377873E0,1.1625481E0,0E0,1.157959E0,0E0,0E0,0E0,9.3338394E-1,2.831668E0,0E0,0E0,1.0308075E0,5.033264E-1,0E0,1.7931986E-1,0E0,1.2155361E0,0E0,2.067649E0,3.2009125E0,0E0,0E0,0E0,0E0,0E0,0E0,0E0,0E0,0E0,0E0,0E0,0E0,0E0,0E0,0E0,0E0],"parents":[2147483647,0,0,1,1,2,2,4,4,5,5,6,6,7,7,10,10,11,11,12,12,15,15,16,16,17,17,18,18,20,20,21,21,22,22,23,23,24,24,25,25,27,27,28,28,30,30,34,34,35,35,38,38,39,39,41,41,43,43,45,45,46,46],"right_children":[2,4,6,-1,8,10,12,14,-1,-1,16,18,20,-1,-1,22,24,26,28,-1,30,32,34,36,38,40,-1,42,44,-1,46,-1,-1,-1,48,50,-1,-1,52,54,-1,56,-1,58,-1,60,62,-1,-1,-1,-1,-1,-1,-1,-1,-1,-1,-1,-1,-1,-1,-1,-1],"split_conditions":[6.239919E-1,8.907057E-1,1.804E3,-3.3674774E-1,1.1640307E1,2.0855E3,3.856E3,1.1625352E1,-2.8300387E-1,-3.1891927E-1,4.07713E-1,1.1654783E1,9.466594E-1,-2.1229175E-1,1.4191936E-1,1.6205E3,2.2655E3,2.8318865E0,1.06150185E2,-1.4846134E-1,3.21E3,3.387574E0,3.164E3,3.281493E-1,1.1644198E1,2.211E3,2.3275526E-1,2.566848E0,3.77E3,-7.692419E-2,1.1630452E1,-1.523246E-1,1.8607344E-1,-1.8542295E-2,1.0620315E2,3.4160624E0,1.1762762E-1,2.789246E-1,2.368E3,1.84E3,4.1242816E-2,3.689E3,1.4003567E-1,6.4981616E-1,2.2313138E-2,2.637E3,1.0613054E2,-3.5305318E-1,-8.8591464E-2,-2.9139888E-1,3.626779E-2,1.2749976E-1,-6.409066E-2,-6.49174E-2,-2.8585777E-1,-2.3027106E-1,-5.7277597E-2,3.278269E-2,2.751192E-1,2.4616794E-1,4.2858254E-2,6.856001E-2,3.04705E-1],"split_indices":[13,9,3,0,1,7,5,1,0,0,8,1,9,0,0,2,7,9,0,0,6,9,5,12,1,2,0,9,5,0,1,0,0,0,0,9,0,0,7,2,0,5,0,13,0,7,0,0,0,0,0,0,0,0,0,0,0,0,0,0,0,0,0],"split_type":[0,0,0,0,0,0,0,0,0,0,0,0,0,0,0,0,0,0,0,0,0,0,0,0,0,0,0,0,0,0,0,0,0,0,0,0,0,0,0,0,0,0,0,0,0,0,0,0,0,0,0,0,0,0,0,0,0,0,0,0,0,0,0],"sum_hessian":[1.4707152E2,3.0034407E1,1.1703711E2,1.747904E1,1.25553665E1,3.7055973E1,7.998113E1,3.2003877E0,9.3549795E0,1.30065365E1,2.4049438E1,2.2810905E1,5.7170227E1,1.477102E0,1.7232857E0,1.2073935E1,1.1975504E1,8.372863E0,1.4438042E1,1.2221644E0,5.5948063E1,3.2247436E0,8.849191E0,5.6413608E0,6.334143E0,6.66287E0,1.7099928E0,3.946305E0,1.0491737E1,1.2115381E0,5.4736526E1,1.4830705E0,1.7416732E0,1.9717972E0,6.8773932E0,3.6813312E0,1.9600297E0,3.6468163E0,2.6873267E0,5.4265494E0,1.2363207E0,2.70778E0,1.2385252E0,9.272655E0,1.2190828E0,8.491133E0,4.624539E1,5.3939424E0,1.4834507E0,2.4517899E0,1.2295412E0,1.4575279E0,1.2297989E0,1.2198523E0,4.206697E0,1.4788944E0,1.2288855E0,1.2343726E0,8.038281E0,4.5870323E0,3.904101E0,3.1318827E0,4.311351E1],"tree_param":{"num_deleted":"0","num_feature":"14","num_nodes":"63","size_leaf_vector":"1"}},{"base_weights":[-1.8346771E-4,-1.2207431E0,3.358951E-1,-2.7841607E-1,-4.6028763E-1,-7.91275E-1,7.727894E-1,-9.449563E-1,9.938293E-2,-1.2626443E0,-9.5365986E-2,1.3106918E-2,1.0036407E0,-2.3457587E-1,-1.9612862E-2,-1.3307531E0,-2.211629E-2,-6.081369E-1,2.4920514E-1,-3.3306327E-1,1.0164725E0,-1.5433286E-1,1.0575007E0,-5.838273E-1,-2.8454491E-1,-1.0246317E0,7.109144E-2,-8.522539E-1,3.7712798E-1,6.155876E-2,2.406516E-1,1.0944219E0,-9.3864344E-2,-2.1080814E-1,4.063559E-2,-4.8552297E-2,-2.565999E-1,5.2661127E-1,-1.5227275E-1,7.439372E-2,-1.2217895E0,-1.4141312E-1,7.07758E-1,1.2145902E0,5.7768863E-1,1.5558423E-1,1.0051693E-2,2.1427552E-1,-1.7141703E-1,-2.8123137E-1,-4.2182717E-2,-3.989356E-2,2.1853991E-1,-8.285146E-3,2.5363895E-1,1.7053816E-1,-8.0776714E-2],"categories":[],"categories_nodes":[],"categories_segments":[],"categories_sizes":[],"default_left":[0,0,0,0,0,0,0,0,0,0,0,0,0,0,0,0,0,0,0,0,0,0,0,0,0,0,0,0,0,0,0,0,0,0,0,0,0,0,0,0,0,0,0,0,0,0,0,0,0,0,0,0,0,0,0,0,0],"id":2,"left_children":[1,3,5,-1,7,9,11,13,-1,15,17,19,21,-1,-1,23,-1,25,-1,27,29,-1,31,33,-1,35,37,39,41,-1,-1,43,-1,-1,-1,-1,-1,45,-1,47,49,-1,51,53,55,-1,-1,-1,-1,-1,-1,-1,-1,-1,-1,-1,-1],"loss_changes":[5.9958145E1,3.4709892E0,5.705151E1,0E0,3.8547044E0,1.0543293E1,1.4560642E1,8.8652706E-1,0E0,1.3671627E0,1.0531205E1,7.417459E0,6.908882E0,0E0,0E0,4.14917E-1,0E0,3.1710048E0,0E0,6.186336E0,3.5432768E-1,0E0,4.0237045E0,1.577366E0,0E0,1.0730529E0,2.3340802E0,3.34238E0,3.156896E0,0E0,0E0,3.0921173E0,0E0,0E0,0E0,0E0,0E0,4.2611337E-1,0E0,4.307613E0,9.792671E-1,0E0,2.3757017E0,3.3288498E0,3.9708128E0,0E0,0E0,0E0,0E0,0E0,0E0,0E0,0E0,0E0,0E0,0E0,0E0],"parents":[2147483647,0,0,1,1,2,2,4,4,5,5,6,6,7,7,9,9,10,10,11,11,12,12,15,15,17,17,19,19,20,20,22,22,23,23,25,25,26,26,27,27,28,28,31,31,37,37,39,39,40,40,42,42,43,43,44,44],"right_children":[2,4,6,-1,8,10,12,14,-1,16,18,20,22,-1,-1,24,-1,26,-1,28,30,-1,32,34,-1,36,38,40,42,-1,-1,44,-1,-1,-1,-1,-1,46,-1,48,50,-1,52,54,56,-1,-1,-1,-1,-1,-1,-1,-1,-1,-1,-1,-1],"split_conditions":[6.6104376E-1,1.1674944E1,1.78E3,-2.7841607E-1,-4.7838617E-2,1.503E3,8.6881936E-1,5.9336734E-1,9.938293E-2,4.728E3,4.258E3,1.1683049E1,3.21E3,-2.3457587E-1,-1.9612862E-2,2.4006444E-1,-2.211629E-2,2.612881E0,2.4920514E-1,1.0619083E2,1.06150185E2,-1.5433286E-1,3.473E3,2.9151699E-2,-2.8454491E-1,3.2115E3,4.4364998E-1,2.667E3,1.1620087E1,6.155876E-2,2.406516E-1,1.0619567E2,-9.3864344E-2,-2.1080814E-1,4.063559E-2,-4.8552297E-2,-2.565999E-1,1.724E3,-1.5227275E-1,2.1333333E-2,2.324E3,-1.4141312E-1,1.9265E3,1.1614568E1,1.1660497E1,1.5558423E-1,1.0051693E-2,2.1427552E-1,-1.7141703E-1,-2.8123137E-1,-4.2182717E-2,-3.989356E-2,2.1853991E-1,-8.285146E-3,2.5363895E-1,1.7053816E-1,-8.0776714E-2],"split_indices":[13,1,3,0,11,4,13,13,0,5,5,1,6,0,0,12,0,9,0,0,0,0,7,11,0,6,8,7,1,0,0,0,0,0,0,0,0,3,0,11,2,0,3,1,1,0,0,0,0,0,0,0,0,0,0,0,0],"split_type":[0,0,0,0,0,0,0,0,0,0,0,0,0,0,0,0,0,0,0,0,0,0,0,0,0,0,0,0,0,0,0,0,0,0,0,0,0,0,0,0,0,0,0,0,0,0,0,0,0,0,0,0,0,0,0,0,0],"sum_hessian":[1.4416707E2,3.055739E1,1.1360968E2,2.4260662E1,6.2967286E0,3.150832E1,8.2101364E1,4.1886473E0,2.1080813E0,1.829914E1,1.320918E1,1.9380625E1,6.2720737E1,2.9971154E0,1.1915319E0,1.7131254E1,1.1678865E0,9.95163E0,3.2575505E0,1.4905981E1,4.474644E0,1.4544007E0,6.1266335E1,2.6837442E0,1.444751E1,5.853691E0,4.097938E0,8.495355E0,6.410627E0,1.4856853E0,2.988959E0,6.0096313E1,1.170024E0,1.4675931E0,1.2161511E0,1.9356478E0,3.9180431E0,2.886076E0,1.2118622E0,2.649685E0,5.8456693E0,1.2320336E0,5.1785936E0,4.766185E1,1.24344635E1,1.4748895E0,1.4111865E0,1.2072966E0,1.4423883E0,4.613258E0,1.2324113E0,1.6862594E0,3.4923341E0,1.9601618E0,4.5701687E1,9.815739E0,2.6187248E0],"tree_param":{"num_deleted":"0","num_feature":"14","num_nodes":"57","size_leaf_vector":"1"}},{"base_weights":[-8.904723E-2,-1.1519841E0,1.8551597E-1,-1.2057062E0,-3.205689E-1,-8.5767764E-1,5.49752E-1,-1.2507218E0,-4.9175668E-1,5.060801E-2,-1.4704505E-1,-1.2107458E0,-2.9968488E-1,-4.614192E-2,9.610079E-1,-7.942378E-2,-2.5629833E-1,-1.5988618E-1,1.00316005E-2,-4.9581323E-2,-2.658281E-1,-6.986284E-1,5.7382137E-1,2.2217482E-1,-5.764026E-1,1.0916253E0,-8.436765E-2,4.7232334E-2,-9.8133576E-1,1.8031281E-1,-5.4171976E-2,-5.8191943E-1,5.8919525E-1,-9.904503E-1,3.5979334E-1,8.744048E-2,1.1592199E0,-1.0368196E0,8.949755E-1,-1.2153019E0,1.9612584E-2,8.377836E-2,-8.676195E-1,7.3383194E-1,-1.3800047E-1,-1.207924E0,-8.033971E-3,1.609606E-1,-9.320378E-2,-1.4967902E-1,1.8362294E-1,5.580885E-1,1.2581918E0,-2.802119E-1,-2.2530194E-2,5.5808473E-2,2.0870169E-1,-2.7535608E-1,-5.9969783E-2,-2.7847728E-1,-3.2282557E-2,-6.806098E-2,1.7740194E-1,-1.6794903E-2,-2.8594467E-1,1.7013083E-1,-1.2292452E-1,7.376209E-2,2.55448E-1],"categories":[],"categories_nodes":[],"categories_segments":[],"categories_sizes":[],"default_left":[0,0,0,0,0,0,0,0,0,0,0,0,0,0,0,0,0,0,0,0,0,0,0,0,0,0,0,0,0,0,0,0,0,0,0,0,0,0,0,0,0,0,0,0,0,0,0,0,0,0,0,0,0,0,0,0,0,0,0,0,0,0,0,0,0,0,0,0,0],"id":3,"left_children":[1,3,5,7,9,11,13,15,17,-1,-1,19,21,23,25,-1,-1,-1,-1,-1,-1,27,29,31,33,35,37,-1,39,-1,-1,41,43,45,47,49,51,53,55,57,-1,-1,59,61,-1,63,-1,-1,-1,-1,-1,65,67,-1,-1,-1,-1,-1,-1,-1,-1,-1,-1,-1,-1,-1,-1,-1,-1],"loss_changes":[4.063897E1,8.897362E-1,4.2626526E1,2.3589325E-1,9.225222E-1,5.370569E0,2.0345798E1,1.2826157E-1,5.7670116E-1,0E0,0E0,1.6648579E0,4.7941976E0,5.0766616E0,6.790947E0,0E0,0E0,0E0,0E0,0E0,0E0,2.6380591E0,1.4904292E0,7.3716426E0,4.9941463E0,2.8637009E0,6.876564E0,0E0,1.9337149E0,0E0,0E0,2.6414976E0,3.6238456E0,1.7209244E0,1.9929116E0,3.3508482E0,1.7279549E0,1.0864291E0,4.5577526E-2,4.7113895E-1,0E0,0E0,2.1928015E0,2.8723001E0,0E0,1.6083126E0,0E0,0E0,0E0,0E0,0E0,3.1205606E0,1.0958862E-1,0E0,0E0,0E0,0E0,0E0,0E0,0E0,0E0,0E0,0E0,0E0,0E0,0E0,0E0,0E0,0E0],"parents":[2147483647,0,0,1,1,2,2,3,3,4,4,5,5,6,6,7,7,8,8,11,11,12,12,13,13,14,14,21,21,22,22,23,23,24,24,25,25,26,26,28,28,31,31,32,32,33,33,34,34,35,35,36,36,37,37,38,38,39,39,42,42,43,43,45,45,51,51,52,52],"right_children":[2,4,6,8,10,12,14,16,18,-1,-1,20,22,24,26,-1,-1,-1,-1,-1,-1,28,30,32,34,36,38,-1,40,-1,-1,42,44,46,48,50,52,54,56,58,-1,-1,60,62,-1,64,-1,-1,-1,-1,-1,66,68,-1,-1,-1,-1,-1,-1,-1,-1,-1,-1,-1,-1,-1,-1,-1,-1],"split_conditions":[6.4981616E-1,1.06214325E2,2.3375E3,1.1685133E1,1.0621632E2,1.5045E3,3.938E3,1.0611354E2,2.206E3,5.060801E-2,-1.4704505E-1,2.4006444E-1,3.1349903E-1,1.06189674E2,1.0620831E2,-7.942378E-2,-2.5629833E-1,-1.5988618E-1,1.00316005E-2,-4.9581323E-2,-2.658281E-1,1.9766614E-1,1.826E3,1.0614139E2,2.0045E3,1.16157465E1,1.062154E2,4.7232334E-2,3.1302743E0,1.8031281E-1,-5.4171976E-2,1.6465E3,1.8745E3,2.6396384E0,3.071E3,1.0619514E2,1.848E3,3.875E3,1.0621632E2,1.836E3,1.9612584E-2,8.377836E-2,1.961E3,1.1618866E1,-1.3800047E-1,3.3E3,-8.033971E-3,1.609606E-1,-9.320378E-2,-1.4967902E-1,1.8362294E-1,1.601E3,7.873163E-2,-2.802119E-1,-2.2530194E-2,5.5808473E-2,2.0870169E-1,-2.7535608E-1,-5.9969783E-2,-2.7847728E-1,-3.2282557E-2,-6.806098E-2,1.7740194E-1,-1.6794903E-2,-2.8594467E-1,1.7013083E-1,-1.2292452E-1,7.376209E-2,2.55448E-1],"split_indices":[13,0,7,1,0,4,5,0,2,0,0,12,12,0,0,0,0,0,0,0,0,12,3,0,3,1,0,0,9,0,0,2,4,9,7,0,3,6,0,3,0,0,2,1,0,6,0,0,0,0,0,4,12,0,0,0,0,0,0,0,0,0,0,0,0,0,0,0,0],"split_type":[0,0,0,0,0,0,0,0,0,0,0,0,0,0,0,0,0,0,0,0,0,0,0,0,0,0,0,0,0,0,0,0,0,0,0,0,0,0,0,0,0,0,0,0,0,0,0,0,0,0,0,0,0,0,0,0,0,0,0,0,0,0,0,0,0,0,0,0,0],"sum_hessian":[1.3751695E2,2.7573587E1,1.0994337E2,2.5477186E1,2.0964015E0,2.8102219E1,8.184115E1,2.325885E1,2.2183363E0,1.0431434E0,1.0532582E0,1.6495146E1,1.1607074E1,3.378124E1,4.8059914E1,1.2930734E0,2.1965776E1,1.1118705E0,1.1064659E0,2.1449924E0,1.4350153E1,8.105412E0,3.501662E0,2.281676E1,1.0964479E1,4.2682575E1,5.3773384E0,1.9203365E0,6.185075E0,2.4742804E0,1.0273818E0,6.9671383E0,1.5849622E1,7.562078E0,3.402402E0,2.8365388E0,3.9846035E1,2.6963437E0,2.6809947E0,4.9797726E0,1.2053022E0,1.4436874E0,5.523451E0,1.4622602E1,1.2270188E0,5.933142E0,1.6289358E0,2.227499E0,1.174903E0,1.4632491E0,1.3732897E0,6.5714564E0,3.327458E1,1.5639336E0,1.1324099E0,1.0802196E0,1.6007752E0,3.8047178E0,1.1750549E0,2.611363E0,2.912088E0,1.6725376E0,1.2950065E1,1.2050848E0,4.7280574E0,5.4791536E0,1.0923026E0,1.1246655E0,3.2149914E1],"tree_param":{"num_deleted":"0","num_feature":"14","num_nodes":"69","size_leaf_vector":"1"}},{"base_weights":[4.8680665E-4,-9.7758E-1,2.3620695E-1,-5.788964E-1,-2.4303441E-1,-1.1334158E0,4.406973E-1,-1.0298862E0,1.1409456E-1,-1.7374035E-2,-2.5204328E-1,-8.1762135E-2,7.4885184E-1,-2.250829E-1,-6.0479164E-2,-1.7897253E-1,9.168528E-1,-2.2869383E-1,7.030324E-1,5.225712E-1,1.2202682E0,3.686779E-1,-1.4220777E-1,-8.043096E-1,1.8624033E-1,-4.3248728E-2,9.928065E-1,1.748902E-1,7.8215003E-1,2.5185463E-1,6.205476E-2,7.629669E-2,-9.852417E-1,-1.7613088E-1,3.8756382E-1,2.4096599E-1,3.289705E-2,3.8826317E-1,-7.2765124E-1,3.2458648E-1,1.1253701E0,-2.4532016E-1,-4.6427865E-2,1.0330067E-1,-1.4217529E-1,-1.1218595E-1,1.1507925E-1,-2.195574E-1,1.7226843E-2,1.4717273E-1,-1.5312938E-1,2.3855463E-1,3.610819E-2],"categories":[],"categories_nodes":[],"categories_segments":[],"categories_sizes":[],"default_left":[0,0,0,0,0,0,0,0,0,0,0,0,0,0,0,0,0,0,0,0,0,0,0,0,0,0,0,0,0,0,0,0,0,0,0,0,0,0,0,0,0,0,0,0,0,0,0,0,0,0,0,0,0],"id":4,"left_children":[1,3,5,7,-1,9,11,13,15,-1,-1,17,19,-1,-1,-1,21,23,25,27,29,-1,-1,31,33,-1,35,37,39,-1,-1,-1,41,-1,43,-1,-1,45,47,49,51,-1,-1,-1,-1,-1,-1,-1,-1,-1,-1,-1,-1],"loss_changes":[3.0888863E1,1.761179E0,3.0735882E1,3.750886E0,0E0,1.7887897E0,1.5300301E1,1.5603304E-1,5.2617474E0,0E0,0E0,4.3140235E0,5.723835E0,0E0,0E0,0E0,6.6617045E0,7.575967E0,1.7931054E0,3.6576643E0,2.6920128E-1,0E0,0E0,3.2105408E0,4.3965535E0,0E0,6.2446165E-1,3.9915495E0,3.3698206E0,0E0,0E0,0E0,1.8496475E0,0E0,2.7150462E0,0E0,0E0,3.2054908E0,1.3086178E0,5.7643213E0,6.243E-1,0E0,0E0,0E0,0E0,0E0,0E0,0E0,0E0,0E0,0E0,0E0,0E0],"parents":[2147483647,0,0,1,1,2,2,3,3,5,5,6,6,7,7,8,8,11,11,12,12,16,16,17,17,18,18,19,19,20,20,23,23,24,24,26,26,27,27,28,28,32,32,34,34,37,37,38,38,39,39,40,40],"right_children":[2,4,6,8,-1,10,12,14,16,-1,-1,18,20,-1,-1,-1,22,24,26,28,30,-1,-1,32,34,-1,36,38,40,-1,-1,-1,42,-1,44,-1,-1,46,48,50,52,-1,-1,-1,-1,-1,-1,-1,-1,-1,-1,-1,-1],"split_conditions":[6.1399215E-1,1.1643806E1,2.154E3,3.965646E-1,-2.4303441E-1,2.4304113E-1,3.831E3,3.7453184E-1,1.1625007E1,-1.7374035E-2,-2.5204328E-1,3.0881307E0,1.1673787E1,-2.250829E-1,-6.0479164E-2,-1.7897253E-1,2.016E3,1.9095E3,7.758353E-1,4.276E3,1.0619366E2,3.686779E-1,-1.4220777E-1,3.071E3,1.1628512E1,-4.3248728E-2,4.0303376E-1,2.6734105E-1,1.892E3,2.5185463E-1,6.205476E-2,7.629669E-2,3.602E3,-1.7613088E-1,1.1694148E1,2.4096599E-1,3.289705E-2,1.1618866E1,2.8318865E0,1.609E3,3.6750968E0,-2.4532016E-1,-4.6427865E-2,1.0330067E-1,-1.4217529E-1,-1.1218595E-1,1.1507925E-1,-2.195574E-1,1.7226843E-2,1.4717273E-1,-1.5312938E-1,2.3855463E-1,3.610819E-2],"split_indices":[13,1,7,13,0,12,5,13,1,0,0,9,1,0,0,0,4,3,13,5,0,0,0,6,1,0,8,12,3,0,0,0,5,0,1,0,0,1,9,4,9,0,0,0,0,0,0,0,0,0,0,0,0],"split_type":[0,0,0,0,0,0,0,0,0,0,0,0,0,0,0,0,0,0,0,0,0,0,0,0,0,0,0,0,0,0,0,0,0,0,0,0,0,0,0,0,0,0,0,0,0,0,0,0,0,0,0,0,0],"sum_hessian":[1.3197743E2,2.5019117E1,1.0695831E2,1.0625633E1,1.4393484E1,1.33046465E1,9.365366E1,6.1422114E0,4.4834213E0,1.6199037E0,1.1684743E1,3.5017704E1,5.863596E1,4.945789E0,1.1964227E0,1.935734E0,2.5476875E0,3.0092318E1,4.925384E0,4.1043518E1,1.7592442E1,1.5392333E0,1.0084543E0,1.2212363E1,1.7879955E1,1.2412878E0,3.6840963E0,1.825989E1,2.2783628E1,1.6501328E1,1.0911152E0,1.4699789E0,1.0742384E1,2.3026981E0,1.5577257E1,2.5713654E0,1.1127309E0,1.5229291E1,3.030598E0,1.0599126E1,1.2184504E1,7.659036E0,3.0833476E0,1.4414954E1,1.1623032E0,2.1790466E0,1.3050244E1,1.8432435E0,1.1873546E0,7.9319396E0,2.6671863E0,1.1128209E1,1.0562938E0],"tree_param":{"num_deleted":"0","num_feature":"14","num_nodes":"53","size_leaf_vector":"1"}},{"base_weights":[4.545744E-2,-7.565541E-1,3.3482552E-1,-8.7771225E-1,1.1491802E-2,-7.732408E-1,5.82862E-1,-6.8232405E-1,-2.3670785E-1,-1.4902613E-1,1.927756E-1,-9.9833834E-1,-1.7871653E-1,-3.0971083E-1,6.697076E-1,-1.20037295E-1,-8.9040756E-1,-1.111499E0,2.0738654E-2,-6.7267483E-1,1.6596304E-1,3.159488E-1,-2.3209043E-1,-1.3721861E-1,7.042666E-1,-6.262125E-1,1.6623823E-1,-1.1446302E0,-1.9501692E-1,-2.3728304E-1,-5.4834563E-2,7.1693234E-2,-2.2588162E-1,-1.11915864E-1,8.1280994E-1,-1.3897753E-1,7.566319E-1,9.247478E-3,-1.8109946E-1,-2.4723218E-1,-6.5482676E-2,1.003397E-1,-1.769312E-1,5.4243285E-2,1.9263753E-1,-1.1840512E-1,9.226381E-2,1.4576072E-1,8.342874E-1,-9.438444E-2,1.5226349E-1,5.9176665E-2,1.857684E-1],"categories":[],"categories_nodes":[],"categories_segments":[],"categories_sizes":[],"default_left":[0,0,0,0,0,0,0,0,0,0,0,0,0,0,0,0,0,0,0,0,0,0,0,0,0,0,0,0,0,0,0,0,0,0,0,0,0,0,0,0,0,0,0,0,0,0,0,0,0,0,0,0,0],"id":5,"left_children":[1,3,5,7,9,11,13,15,-1,-1,-1,17,19,21,23,25,27,29,-1,31,-1,33,-1,-1,35,37,-1,39,41,-1,-1,-1,-1,-1,43,45,47,-1,-1,-1,-1,-1,-1,-1,-1,-1,-1,49,51,-1,-1,-1,-1],"loss_changes":[2.7982395E1,2.986576E0,2.477305E1,8.4412766E-1,4.5700655E0,2.0452452E0,5.8567867E0,2.1427345E0,0E0,0E0,0E0,1.591116E0,3.4383428E0,4.1703286E0,3.6100197E0,3.5775728E0,2.2301607E0,3.5332012E-1,0E0,2.4926121E0,0E0,2.5880497E0,0E0,0E0,3.0004578E0,9.272504E-1,0E0,3.4006882E-1,2.8081052E0,0E0,0E0,0E0,0E0,0E0,2.6763916E-2,1.545507E0,2.8143044E0,0E0,0E0,0E0,0E0,0E0,0E0,0E0,0E0,0E0,0E0,3.474027E0,2.509777E0,0E0,0E0,0E0,0E0],"parents":[2147483647,0,0,1,1,2,2,3,3,4,4,5,5,6,6,7,7,11,11,12,12,13,13,14,14,15,15,16,16,17,17,19,19,21,21,24,24,25,25,27,27,28,28,34,34,35,35,36,36,47,47,48,48],"right_children":[2,4,6,8,10,12,14,16,-1,-1,-1,18,20,22,24,26,28,30,-1,32,-1,34,-1,-1,36,38,-1,40,42,-1,-1,-1,-1,-1,44,46,48,-1,-1,-1,-1,-1,-1,-1,-1,-1,-1,50,52,-1,-1,-1,-1],"split_conditions":[7.029795E-1,1.1683049E1,1.745E3,2.208E3,-5.0045975E-2,1.5045E3,3.484E3,-7.1816534E-2,-2.3670785E-1,-1.4902613E-1,1.927756E-1,4.588E3,4.2E3,8.1144345E-1,1.0611446E2,-9.054726E-2,1.1055868E-1,2.2655E3,2.0738654E-2,3.091E3,1.6596304E-1,1.2318965E0,-2.3209043E-1,-1.3721861E-1,3.1935E3,1.1635365E1,1.6623823E-1,1.1670289E1,2.1333333E-2,-2.3728304E-1,-5.4834563E-2,7.1693234E-2,-2.2588162E-1,-1.11915864E-1,1.0615157E2,4.002619E-1,1.1620087E1,9.247478E-3,-1.8109946E-1,-2.4723218E-1,-6.5482676E-2,1.003397E-1,-1.769312E-1,5.4243285E-2,1.9263753E-1,-1.1840512E-1,9.226381E-2,5.9490833E-2,1.818E3,-9.438444E-2,1.5226349E-1,5.9176665E-2,1.857684E-1],"split_indices":[13,1,3,4,11,4,5,11,0,0,0,5,5,13,0,11,12,7,0,6,0,9,0,0,6,1,0,1,11,0,0,0,0,0,0,8,1,0,0,0,0,0,0,0,0,0,0,11,3,0,0,0,0],"split_type":[0,0,0,0,0,0,0,0,0,0,0,0,0,0,0,0,0,0,0,0,0,0,0,0,0,0,0,0,0,0,0,0,0,0,0,0,0,0,0,0,0,0,0,0,0,0,0,0,0,0,0,0,0],"sum_hessian":[1.1848249E2,3.0986341E1,8.749615E1,2.664098E1,4.345361E0,1.56160965E1,7.188005E1,1.8227064E1,8.413916E0,2.5428298E0,1.8025317E0,1.0834673E1,4.7814236E0,6.146096E0,6.5733955E1,5.3492107E0,1.2877853E1,9.817941E0,1.0167323E0,3.4330173E0,1.3484064E0,3.9037702E0,2.2423258E0,1.1652852E0,6.4568665E1,3.714371E0,1.6348401E0,8.957225E0,3.9206288E0,8.628988E0,1.1889522E0,1.1198797E0,2.3131375E0,1.3676249E0,2.5361454E0,3.6785538E0,6.0890114E1,1.3348414E0,2.3795295E0,7.594025E0,1.3632001E0,2.085873E0,1.8347558E0,1.160415E0,1.3757304E0,2.104244E0,1.5743097E0,7.191977E0,5.369814E1,3.706258E0,3.4857187E0,8.638544E0,4.5059593E1],"tree_param":{"num_deleted":"0","num_feature":"14","num_nodes":"53","size_leaf_vector":"1"}},{"base_weights":[-7.521032E-2,-7.948712E-1,1.8052712E-1,-9.2762804E-1,-9.66602E-2,-7.3035055E-1,4.3912798E-1,-2.2763395E-1,-6.799748E-1,-1.8849087E-1,6.601892E-1,-8.766412E-1,1.4935504E-1,-5.5828017E-1,5.501654E-1,-3.391698E-1,-2.4595909E-1,-4.3032162E-2,2.2800063E-1,-1.2357688E-1,-1.0299602E0,-1.3319406E-1,1.5561263E-1,8.988142E-2,-9.2417616E-1,-3.8470453E-1,6.652165E-1,8.178824E-2,-5.508084E-1,-1.5175411E-1,7.222395E-2,-3.2912415E-1,-1.1816169E0,-2.907888E-1,-2.4426523E-1,-7.033414E-1,1.4371543E-1,-1.4663646E-1,7.28296E-1,-7.657454E-1,3.9138984E-2,-2.1130319E-1,1.6478454E-1,-2.7559176E-1,-3.8017896E-1,6.411107E-2,-1.5138358E-1,-9.6446633E-1,4.7611397E-2,-1.859922E-1,7.8155965E-1,-1.9797027E-1,-2.1641586E-2,-1.4609866E-1,3.977444E-2,-2.7589124E-1,-3.6748942E-2,8.805378E-2,-1.6899672E-1,-8.934533E-3,1.6381055E-1],"categories":[],"categories_nodes":[],"categories_segments":[],"categories_sizes":[],"default_left":[0,0,0,0,0,0,0,0,0,0,0,0,0,0,0,0,0,0,0,0,0,0,0,0,0,0,0,0,0,0,0,0,0,0,0,0,0,0,0,0,0,0,0,0,0,0,0,0,0,0,0,0,0,0,0,0,0,0,0,0,0],"id":6,"left_children":[1,3,5,7,9,11,13,-1,15,-1,17,19,21,23,25,27,-1,-1,-1,29,31,-1,-1,-1,33,35,37,-1,39,-1,-1,41,43,45,-1,47,-1,-1,49,51,-1,-1,-1,-1,53,-1,-1,55,-1,57,59,-1,-1,-1,-1,-1,-1,-1,-1,-1,-1],"loss_changes":[2.115297E1,2.7017612E0,2.035209E1,5.393791E-1,4.4166474E0,2.5992365E0,7.7118273E0,0E0,2.2170486E0,0E0,1.8061565E0,1.7882633E0,2.3579805E0,3.067799E0,6.780987E0,1.8179197E0,0E0,0E0,0E0,1.48788E0,1.0616951E0,0E0,0E0,0E0,6.9973564E-1,3.0651474E0,5.3312263E0,0E0,1.4763227E0,0E0,0E0,4.069366E0,1.1809101E0,1.1266767E0,0E0,1.74265E0,0E0,0E0,2.7039127E0,8.6876774E-1,0E0,0E0,0E0,0E0,8.578684E-1,0E0,0E0,1.3718247E0,0E0,1.8990214E0,1.5804939E0,0E0,0E0,0E0,0E0,0E0,0E0,0E0,0E0,0E0,0E0],"parents":[2147483647,0,0,1,1,2,2,3,3,4,4,5,5,6,6,8,8,10,10,11,11,12,12,13,13,14,14,15,15,19,19,20,20,24,24,25,25,26,26,28,28,31,31,32,32,33,33,35,35,38,38,39,39,44,44,47,47,49,49,50,50],"right_children":[2,4,6,8,10,12,14,-1,16,-1,18,20,22,24,26,28,-1,-1,-1,30,32,-1,-1,-1,34,36,38,-1,40,-1,-1,42,44,46,-1,48,-1,-1,50,52,-1,-1,-1,-1,54,-1,-1,56,-1,58,60,-1,-1,-1,-1,-1,-1,-1,-1,-1,-1],"split_conditions":[7.029795E-1,1.1682293E1,1.535E3,3.965646E-1,-5.072241E-2,1.0620739E2,3.454E3,-2.2763395E-1,2.062027E0,-1.8849087E-1,2.575E3,1.0612176E2,1.724E3,1.745E3,1.1619537E1,1.0615292E2,-2.4595909E-1,-4.3032162E-2,2.2800063E-1,4.1436076E-1,1.1625352E1,-1.3319406E-1,1.5561263E-1,8.988142E-2,-2.6833156E-2,2.9748988E-1,1.0611446E2,8.178824E-2,2.21E3,-1.5175411E-1,7.222395E-2,1.1619537E1,1.16766815E1,2.825E3,-2.4426523E-1,1.0620315E2,1.4371543E-1,-1.4663646E-1,1.768E3,3.667E3,3.9138984E-2,-2.1130319E-1,1.6478454E-1,-2.7559176E-1,1.0614195E2,6.411107E-2,-1.5138358E-1,1.759E3,4.7611397E-2,1.738E3,3.1935E3,-1.9797027E-1,-2.1641586E-2,-1.4609866E-1,3.977444E-2,-2.7589124E-1,-3.6748942E-2,8.805378E-2,-1.6899672E-1,-8.934533E-3,1.6381055E-1],"split_indices":[13,1,4,13,11,0,5,0,9,0,7,0,3,3,1,0,0,0,0,8,1,0,0,0,11,12,0,0,3,0,0,1,1,7,0,0,0,0,3,6,0,0,0,0,0,0,0,4,0,3,6,0,0,0,0,0,0,0,0,0,0],"split_type":[0,0,0,0,0,0,0,0,0,0,0,0,0,0,0,0,0,0,0,0,0,0,0,0,0,0,0,0,0,0,0,0,0,0,0,0,0,0,0,0,0,0,0,0,0,0,0,0,0,0,0,0,0,0,0,0,0,0,0,0,0],"sum_hessian":[1.1315448E2,2.9114979E1,8.40395E1,2.4187437E1,4.9275417E0,1.8179844E1,6.585966E1,1.112972E1,1.3057717E1,2.211223E0,2.7163186E0,1.5590676E1,2.5891688E0,6.1939373E0,5.9665718E1,9.059242E0,3.9984753E0,1.1570413E0,1.5592774E0,2.942731E0,1.2647945E1,1.1014768E0,1.4876921E0,1.5891471E0,4.60479E0,6.2813816E0,5.3384335E1,1.7921164E0,7.267126E0,1.0289023E0,1.9138286E0,2.814015E0,9.83393E0,2.102282E0,2.5025082E0,5.1550584E0,1.1263231E0,1.8456324E0,5.1538704E1,5.6224933E0,1.6446325E0,1.776831E0,1.037184E0,7.3210187E0,2.5129113E0,1.0445815E0,1.0577006E0,4.0164676E0,1.1385908E0,2.7000222E0,4.883868E1,3.8163798E0,1.8061136E0,1.4027444E0,1.110167E0,2.1217566E0,1.894711E0,1.5545692E0,1.1454531E0,2.1117072E0,4.6726974E1],"tree_param":{"num_deleted":"0","num_feature":"14","num_nodes":"61","size_leaf_vector":"1"}},{"base_weights":[-1.20676115E-1,-9.6355736E-1,4.710774E-2,-2.1785228E-1,5.599741E-2,-5.6601614E-1,3.7034672E-1,-2.154173E-1,-3.5213423E-1,6.330908E-2,7.590738E-1,-8.12504E-1,-6.5533526E-2,-3.031051E-1,4.1488686E-1,8.9463174E-1,-4.970914E-1,2.2168215E-2,-9.764169E-1,-7.840209E-1,3.0520144E-1,-8.769324E-1,2.299636E-1,5.854722E-1,-1.5944034E-1,-8.229843E-2,1.0313094E0,-2.40532E-3,-1.4725652E-1,-2.2373524E-1,-1.17784925E-2,-2.3962171E-1,-4.4539548E-3,6.1994576E-1,-1.3128008E-1,-1.0658108E0,-2.5294175E-2,-3.9769262E-1,6.0662425E-1,8.132004E-1,-3.9864585E-2,2.2330175E-1,4.2654666E-1,1.8361112E-1,-1.2033675E-2,-2.5791407E-1,-7.928627E-2,7.0349574E-2,-1.9190481E-1,-7.238296E-2,1.8337047E-1,-1.3208783E-2,1.823913E-1,-1.740606E-1,1.2875041E-1,-7.622704E-2,1.6478291E-1],"categories":[],"categories_nodes":[],"categories_segments":[],"categories_sizes":[],"default_left":[0,0,0,0,0,0,0,0,0,0,0,0,0,0,0,0,0,0,0,0,0,0,0,0,0,0,0,0,0,0,0,0,0,0,0,0,0,0,0,0,0,0,0,0,0,0,0,0,0,0,0,0,0,0,0,0,0],"id":7,"left_children":[1,3,5,-1,-1,7,9,-1,11,13,15,17,19,21,23,25,27,-1,29,31,33,35,37,39,-1,-1,41,-1,-1,-1,-1,-1,-1,43,-1,45,-1,47,49,51,53,-1,55,-1,-1,-1,-1,-1,-1,-1,-1,-1,-1,-1,-1,-1,-1],"loss_changes":[1.4080674E1,2.887744E0,1.6802038E1,0E0,0E0,2.8231163E0,6.5671105E0,0E0,2.8678424E0,4.25545E0,4.5941267E0,1.3805661E0,4.163539E0,5.180069E0,3.936646E0,4.414501E0,3.4110713E-1,0E0,8.792949E-1,1.6434126E0,3.5660253E0,1.0056524E0,2.4232235E0,2.209539E0,0E0,0E0,5.8101845E-1,0E0,0E0,0E0,0E0,0E0,0E0,1.7538958E0,0E0,4.313798E-1,0E0,2.0493088E0,2.1839159E0,1.0373864E0,3.4183285E0,0E0,1.6466001E0,0E0,0E0,0E0,0E0,0E0,0E0,0E0,0E0,0E0,0E0,0E0,0E0,0E0,0E0],"parents":[2147483647,0,0,1,1,2,2,5,5,6,6,8,8,9,9,10,10,11,11,12,12,13,13,14,14,15,15,16,16,18,18,19,19,20,20,21,21,22,22,23,23,26,26,33,33,35,35,37,37,38,38,39,39,40,40,42,42],"right_children":[2,4,6,-1,-1,8,10,-1,12,14,16,18,20,22,24,26,28,-1,30,32,34,36,38,40,-1,-1,42,-1,-1,-1,-1,-1,-1,44,-1,46,-1,48,50,52,54,-1,56,-1,-1,-1,-1,-1,-1,-1,-1,-1,-1,-1,-1,-1,-1],"split_conditions":[3.1935E3,2.381E3,1.0157683E-1,-2.1785228E-1,5.599741E-2,6.4239234E-1,1.6915E3,-2.154173E-1,3.702E3,3.533E3,1.0620948E2,2.925E3,1.1632611E1,1.0036552E-1,1.672E3,7.1175224E-1,3.45E3,2.2168215E-2,2.2697407E-3,2.14E3,2.136E3,2.614E3,1.0615455E2,1.0619178E2,-1.5944034E-1,-8.229843E-2,4.002619E-1,-2.40532E-3,-1.4725652E-1,-2.2373524E-1,-1.17784925E-2,-2.3962171E-1,-4.4539548E-3,4.007E3,-1.3128008E-1,1.166987E1,-2.5294175E-2,1.3306055E0,1.494E3,3.565E3,1.0620422E2,2.2330175E-1,4.2450085E-1,1.8361112E-1,-1.2033675E-2,-2.5791407E-1,-7.928627E-2,7.0349574E-2,-1.9190481E-1,-7.238296E-2,1.8337047E-1,-1.3208783E-2,1.823913E-1,-1.740606E-1,1.2875041E-1,-7.622704E-2,1.6478291E-1],"split_indices":[6,7,12,0,0,9,4,0,6,6,0,5,1,11,4,13,6,0,11,3,4,7,0,0,0,0,8,0,0,0,0,0,0,6,0,1,0,13,4,6,0,0,8,0,0,0,0,0,0,0,0,0,0,0,0,0,0],"split_type":[0,0,0,0,0,0,0,0,0,0,0,0,0,0,0,0,0,0,0,0,0,0,0,0,0,0,0,0,0,0,0,0,0,0,0,0,0,0,0,0,0,0,0,0,0,0,0,0,0,0,0,0,0,0,0,0,0],"sum_hessian":[9.824408E1,1.5522449E1,8.2721634E1,1.4210086E1,1.3123629E0,2.8296808E1,5.4424828E1,7.1576715E0,2.1139135E1,3.1057108E1,2.3367718E1,7.406702E0,1.3732433E1,1.52751875E1,1.578192E1,2.1351406E1,2.0163107E0,1.1654327E0,6.2412696E0,4.29463E0,9.437803E0,7.0457034E0,8.229485E0,1.4288041E1,1.4938793E0,1.832161E0,1.9519245E1,1.0127655E0,1.003545E0,5.213673E0,1.0275966E0,2.4111147E0,1.8835156E0,7.3781433E0,2.05966E0,5.29327E0,1.7524332E0,3.0654576E0,5.1640267E0,1.0253585E1,4.0344567E0,1.6367228E1,3.152019E0,4.8864455E0,2.4916978E0,3.272744E0,2.0205264E0,1.4736485E0,1.591809E0,1.2123708E0,3.951656E0,1.0688298E0,9.184755E0,1.6983105E0,2.3361464E0,1.052856E0,2.099163E0],"tree_param":{"num_deleted":"0","num_feature":"14","num_nodes":"57","size_leaf_vector":"1"}},{"base_weights":[1.2015944E-2,-2.057267E-1,1.08535424E-1,-5.9471744E-1,2.7259612E-1,-7.987355E-1,3.8944954E-1,9.577784E-2,8.103709E-1,1.9619731E-2,-9.116044E-1,-3.4015246E-2,1.606152E-1,-7.4209255E-1,2.2318317E-1,2.1991745E-1,2.3141441E-1,-1.0183883E0,-1.0124547E-2,-9.9212956E-1,5.6804646E-2,-6.9601927E-3,5.785155E-1,-1.7704071E-1,6.060972E-1,-7.119908E-1,-2.8749308E-1,-3.3847739E-3,-2.3301578E-1,3.0396283E-1,-5.6916314E-1,7.1644884E-1,-1.2875117E-1,-7.563153E-2,1.9543669E-1,-1.7047928E-1,3.4599554E-2,-5.0130773E-2,1.2930529E-1,-1.8045817E-1,7.7687345E-2,-7.317143E-3,1.6768019E-1],"categories":[],"categories_nodes":[],"categories_segments":[],"categories_sizes":[],"default_left":[0,0,0,0,0,0,0,0,0,0,0,0,0,0,0,0,0,0,0,0,0,0,0,0,0,0,0,0,0,0,0,0,0,0,0,0,0,0,0,0,0,0,0],"id":8,"left_children":[1,-1,3,5,7,9,11,13,15,-1,17,-1,-1,19,21,-1,23,25,-1,27,-1,29,31,-1,33,35,-1,-1,-1,37,39,41,-1,-1,-1,-1,-1,-1,-1,-1,-1,-1,-1],"loss_changes":[1.0424605E1,0E0,1.1107237E1,3.9772239E0,7.3017974E0,1.6534986E0,1.0177438E0,6.5211596E0,2.938467E0,0E0,1.2191725E0,0E0,0E0,2.357267E0,4.293062E0,0E0,3.724114E0,5.487232E-1,0E0,1.114871E0,0E0,5.90987E0,3.939004E0,0E0,2.6699398E0,1.2725253E0,0E0,0E0,0E0,4.300844E0,4.18974E0,1.7764282E0,0E0,0E0,0E0,0E0,0E0,0E0,0E0,0E0,0E0,0E0,0E0],"parents":[2147483647,0,0,2,2,3,3,4,4,5,5,6,6,7,7,8,8,10,10,13,13,14,14,16,16,17,17,19,19,21,21,22,22,24,24,25,25,29,29,30,30,31,31],"right_children":[2,-1,4,6,8,10,12,14,16,-1,18,-1,-1,20,22,-1,24,26,-1,28,-1,30,32,-1,34,36,-1,-1,-1,38,40,42,-1,-1,-1,-1,-1,-1,-1,-1,-1,-1,-1],"split_conditions":[3.965646E-1,-2.057267E-1,1.534E3,4.54E3,4.336E3,1.06119415E2,2.428E3,1.1619537E1,1.5603594E0,1.9619731E-2,1.524E3,-3.4015246E-2,1.606152E-1,2.1223621E-1,3.688E3,2.1991745E-1,1.0613188E2,3.226E3,-1.0124547E-2,2.513E3,5.6804646E-2,1.0618887E2,2.09E3,-1.7704071E-1,3.1113705E-1,1.503E3,-2.8749308E-1,-3.3847739E-3,-2.3301578E-1,1.0614139E2,2.6396384E0,1.061374E2,-1.2875117E-1,-7.563153E-2,1.9543669E-1,-1.7047928E-1,3.4599554E-2,-5.0130773E-2,1.2930529E-1,-1.8045817E-1,7.7687345E-2,-7.317143E-3,1.6768019E-1],"split_indices":[13,0,4,5,5,0,7,1,13,0,4,0,0,12,6,0,0,6,0,7,0,0,4,0,12,4,0,0,0,0,9,0,0,0,0,0,0,0,0,0,0,0,0],"split_type":[0,0,0,0,0,0,0,0,0,0,0,0,0,0,0,0,0,0,0,0,0,0,0,0,0,0,0,0,0,0,0,0,0,0,0,0,0,0,0,0,0,0,0],"sum_hessian":[1.0167483E2,7.8101745E0,9.3864655E1,1.725886E1,7.660579E1,1.4451479E1,2.80738E0,5.8537117E1,1.8068676E1,1.6300759E0,1.2821403E1,1.4435121E0,1.363868E0,7.089429E0,5.144769E1,1.1449735E1,6.6189423E0,1.1244031E1,1.577372E0,5.727027E0,1.3624021E0,3.1819254E1,1.9628433E1,1.3206481E0,5.298294E0,8.054291E0,3.1897402E0,1.0280484E0,4.6989784E0,2.0784079E1,1.1035175E1,1.8009861E1,1.618574E0,1.4454312E0,3.852863E0,6.983214E0,1.0710769E0,8.038272E0,1.2745806E1,8.229925E0,2.80525E0,2.6077037E0,1.5402157E1],"tree_param":{"num_deleted":"0","num_feature":"14","num_nodes":"43","size_leaf_vector":"1"}},{"base_weights":[-9.9495575E-3,-8.0559033E-1,9.728773E-2,-1.9127238E-1,-1.9631492E-1,-1.7232375E-1,5.046105E-1,-1.3854183E-1,9.796744E-2,-9.125864E-2,-2.235643E-1,1.7923552E-1,7.735186E-1,-3.1488878E-1,8.135096E-1,-5.367366E-1,5.2383786E-1,-4.0905546E-2,8.7545323E-1,-1.522483E-1,-8.498275E-1,1.0171605E0,-1.4066313E-2,3.903627E-1,-3.3201706E-1,-3.627318E-1,7.6933014E-1,-1.4869548E-2,9.515057E-1,-6.136024E-1,1.6427329E-1,-1.5759575E-1,-2.1078245E-1,1.1396651E0,4.512198E-2,-2.2024639E-2,1.2947468E-1,-1.8480472E-1,7.8700185E-2,6.9873944E-2,2.1376197E-1,1.0082417E0,3.864798E-2,-1.8961821E-1,4.8328456E-2,9.84262E-2,-3.6680907E-2,-1.210802E-1,7.6583356E-2,2.4591081E-1,6.574948E-2,1.3805863E-1,-1.5674871E-1,2.1188365E-1,4.1400857E-2],"categories":[],"categories_nodes":[],"categories_segments":[],"categories_sizes":[],"default_left":[0,0,0,0,0,0,0,0,0,0,0,0,0,0,0,0,0,0,0,0,0,0,0,0,0,0,0,0,0,0,0,0,0,0,0,0,0,0,0,0,0,0,0,0,0,0,0,0,0,0,0,0,0,0,0],"id":9,"left_children":[1,3,5,7,-1,9,11,-1,-1,13,-1,15,17,19,21,23,25,-1,27,29,31,33,-1,35,-1,37,39,-1,41,43,45,47,-1,49,-1,-1,-1,-1,-1,51,-1,53,-1,-1,-1,-1,-1,-1,-1,-1,-1,-1,-1,-1,-1],"loss_changes":[7.8418694E0,9.9226475E-1,8.990552E0,1.5936134E0,0E0,3.6942933E0,2.7089567E0,0E0,0E0,9.706644E0,0E0,4.2357206E0,1.9254751E0,3.1916585E0,1.78792E0,6.586203E0,2.7441974E0,0E0,1.2303495E0,4.553245E0,1.0603747E0,5.006561E-1,0E0,5.7724226E-1,0E0,1.6946274E0,1.850502E0,0E0,4.4771385E-1,3.838676E0,2.2415056E0,9.9487174E-1,0E0,7.108307E-2,0E0,0E0,0E0,0E0,0E0,2.5668848E0,0E0,3.4076977E-1,0E0,0E0,0E0,0E0,0E0,0E0,0E0,0E0,0E0,0E0,0E0,0E0,0E0],"parents":[2147483647,0,0,1,1,2,2,3,3,5,5,6,6,9,9,11,11,12,12,13,13,14,14,15,15,16,16,18,18,19,19,20,20,21,21,23,23,25,25,26,26,28,28,29,29,30,30,31,31,33,33,39,39,41,41],"right_children":[2,4,6,8,-1,10,12,-1,-1,14,-1,16,18,20,22,24,26,-1,28,30,32,34,-1,36,-1,38,40,-1,42,44,46,48,-1,50,-1,-1,-1,-1,-1,52,-1,54,-1,-1,-1,-1,-1,-1,-1,-1,-1,-1,-1,-1,-1],"split_conditions":[2.138E3,1.1633173E1,4.025E3,1.974E3,-1.9631492E-1,1.1696882E1,1.1652108E1,-1.3854183E-1,9.796744E-2,1.1683339E1,-2.235643E-1,2.1223621E-1,1.768E3,1.9905E3,2.146E3,3.3925927E-1,1.524E3,-4.0905546E-2,8.5639316E-1,3.464E3,3.28E3,9.665224E-1,-1.4066313E-2,1.1618866E1,-3.3201706E-1,4.583E3,1.1617667E1,-1.4869548E-2,1.1690482E1,6.927882E-2,1.1644198E1,-4.2563215E-2,-2.1078245E-1,2.047968E0,4.512198E-2,-2.2024639E-2,1.2947468E-1,-1.8480472E-1,7.8700185E-2,2.7715533E0,2.1376197E-1,1.0620365E2,3.864798E-2,-1.8961821E-1,4.8328456E-2,9.84262E-2,-3.6680907E-2,-1.210802E-1,7.6583356E-2,2.4591081E-1,6.574948E-2,1.3805863E-1,-1.5674871E-1,2.1188365E-1,4.1400857E-2],"split_indices":[7,1,5,7,0,1,1,0,0,1,0,12,3,4,3,8,4,0,13,6,5,13,0,1,0,5,1,0,1,11,1,12,0,9,0,0,0,0,0,9,0,0,0,0,0,0,0,0,0,0,0,0,0,0,0],"split_type":[0,0,0,0,0,0,0,0,0,0,0,0,0,0,0,0,0,0,0,0,0,0,0,0,0,0,0,0,0,0,0,0,0,0,0,0,0,0,0,0,0,0,0,0,0,0,0,0,0,0,0,0,0,0,0],"sum_hessian":[8.999017E1,9.914904E0,8.0075264E1,2.6725514E0,7.2423525E0,4.8529793E1,3.1545475E1,1.5294966E0,1.1430547E0,4.5707443E1,2.8223472E0,1.5028155E1,1.651732E1,3.7171734E1,8.535711E0,4.701795E0,1.0326361E1,1.4640017E0,1.5053319E1,2.9490252E1,7.6814814E0,6.8146644E0,1.721047E0,2.933379E0,1.7684159E0,2.1357505E0,8.19061E0,1.1176524E0,1.3935666E1,1.1617821E1,1.787243E1,2.152536E0,5.5289454E0,5.5204954E0,1.294169E0,1.1891767E0,1.7442024E0,1.0985249E0,1.0372256E0,2.8252816E0,5.3653283E0,1.2658825E1,1.2768414E0,8.273478E0,3.3443432E0,8.984568E0,8.887863E0,1.1115698E0,1.0409662E0,4.5048857E0,1.0156096E0,1.7469268E0,1.0783548E0,1.1595942E1,1.0628839E0],"tree_param":{"num_deleted":"0","num_feature":"14","num_nodes":"55","size_leaf_vector":"1"}},{"base_weights":[-1.4308815E-1,-7.099809E-2,-2.1161067E-1,-3.824182E-1,1.9009961E-1,-1.1567372E0,-1.9049631E-1,-4.7339916E-1,3.849927E-1,-2.6205388E-1,-2.2893395E-2,4.0539944E-1,-4.609822E-1,-8.3173066E-1,-3.8074017E-2,-1.651412E-2,7.241555E-1,-1.8288375E-1,8.337005E-1,-7.553845E-1,1.9285926E-1,-2.1399458E-1,-3.9644536E-2,-7.3532706E-1,6.4254946E-1,2.50488E-1,-2.0422247E-1,-3.935622E-2,7.875308E-1,-1.6296605E-2,1.0301973E0,-9.098221E-1,3.562117E-2,5.7741684E-1,-1.4495477E-1,6.954621E-2,-2.728729E-1,1.57924E-1,3.415704E-2,-4.1303018E-1,5.998281E-1,8.233577E-1,2.2456743E-2,3.7975214E-2,2.4835706E-1,3.41808E-2,-2.081468E-1,1.6900817E-1,-6.657967E-2,-1.2940852E-1,6.016034E-3,2.6869127E-1,-8.140236E-2,1.8407126E-1,6.4893864E-2],"categories":[],"categories_nodes":[],"categories_segments":[],"categories_sizes":[],"default_left":[0,0,0,0,0,0,0,0,0,0,0,0,0,0,0,0,0,0,0,0,0,0,0,0,0,0,0,0,0,0,0,0,0,0,0,0,0,0,0,0,0,0,0,0,0,0,0,0,0,0,0,0,0,0,0],"id":10,"left_children":[1,3,-1,5,7,9,11,13,15,-1,-1,17,19,21,23,25,27,-1,29,31,33,-1,-1,35,37,-1,39,-1,41,-1,43,45,-1,47,-1,-1,-1,-1,-1,49,51,53,-1,-1,-1,-1,-1,-1,-1,-1,-1,-1,-1,-1,-1],"loss_changes":[5.496243E0,6.526261E0,0E0,5.208075E0,5.851327E0,9.7951126E-1,5.098071E0,1.5909863E0,4.701627E0,0E0,0E0,6.4405003E0,4.269853E0,6.4181733E-1,3.198646E0,4.244907E0,1.2458534E0,0E0,1.5418086E0,2.3211632E0,3.04694E0,0E0,0E0,2.7253473E0,1.0386217E-1,0E0,2.8415344E0,0E0,3.354435E-1,0E0,9.638858E-1,2.019127E0,0E0,1.6956398E0,0E0,0E0,0E0,0E0,0E0,1.352587E0,3.2367344E0,5.065203E-1,0E0,0E0,0E0,0E0,0E0,0E0,0E0,0E0,0E0,0E0,0E0,0E0,0E0],"parents":[2147483647,0,0,1,1,3,3,4,4,5,5,6,6,7,7,8,8,11,11,12,12,13,13,14,14,15,15,16,16,18,18,19,19,20,20,23,23,24,24,26,26,28,28,30,30,31,31,33,33,39,39,40,40,41,41],"right_children":[2,4,-1,6,8,10,12,14,16,-1,-1,18,20,22,24,26,28,-1,30,32,34,-1,-1,36,38,-1,40,-1,42,-1,44,46,-1,48,-1,-1,-1,-1,-1,50,52,54,-1,-1,-1,-1,-1,-1,-1,-1,-1,-1,-1,-1,-1],"split_conditions":[2.136E3,1.88E3,-2.1161067E-1,1.8081477E0,1.1634376E1,1.1683793E1,1.1636372E1,3.93E3,8.3042866E-1,-2.6205388E-1,-2.2893395E-2,1.16157465E1,3.45E3,1.2909651E0,2.044E3,1.1636372E1,2.3375E3,-1.8288375E-1,1.06146095E2,4.458E3,1.0618469E2,-2.1399458E-1,-3.9644536E-2,3.6305E3,2.282E3,2.50488E-1,3.393E3,-3.935622E-2,2.202E3,-1.6296605E-2,1.495E3,2.84772E-1,3.562117E-2,1.711E3,-1.4495477E-1,6.954621E-2,-2.728729E-1,1.57924E-1,3.415704E-2,9.973198E-2,3.617E3,1.0619366E2,2.2456743E-2,3.7975214E-2,2.4835706E-1,3.41808E-2,-2.081468E-1,1.6900817E-1,-6.657967E-2,-1.2940852E-1,6.016034E-3,2.6869127E-1,-8.140236E-2,1.8407126E-1,6.4893864E-2],"split_indices":[4,3,0,9,1,1,1,5,13,0,0,1,6,9,2,1,7,0,0,5,0,0,0,6,2,0,7,0,3,0,4,8,0,2,0,0,0,0,0,12,7,0,0,0,0,0,0,0,0,0,0,0,0,0,0],"split_type":[0,0,0,0,0,0,0,0,0,0,0,0,0,0,0,0,0,0,0,0,0,0,0,0,0,0,0,0,0,0,0,0,0,0,0,0,0,0,0,0,0,0,0,0,0,0,0,0,0,0,0,0,0,0,0],"sum_hessian":[8.34659E1,7.836882E1,5.097079E0,3.5528324E1,4.2840496E1,6.058372E0,2.9469952E1,9.402245E0,3.343825E1,5.0564055E0,1.0019664E0,9.044851E0,2.04251E1,4.6577168E0,4.744528E0,1.5747452E1,1.76908E1,1.9379693E0,7.1068816E0,1.3976612E1,6.448489E0,2.8841243E0,1.7735924E0,2.3039317E0,2.440596E0,1.2983079E0,1.4449143E1,1.0034969E0,1.6687302E1,1.3596469E0,5.747235E0,1.2014307E1,1.9623046E0,4.805413E0,1.6430767E0,1.0107878E0,1.293144E0,1.3469352E0,1.0936611E0,1.1856409E1,2.592734E0,1.5638233E1,1.0490692E0,1.53769E0,4.2095447E0,1.2650828E0,1.0749225E1,3.7690525E0,1.0363601E0,7.4576807E0,4.398729E0,1.2989964E0,1.2937376E0,1.23853445E1,3.252888E0],"tree_param":{"num_deleted":"0","num_feature":"14","num_nodes":"55","size_leaf_vector":"1"}},{"base_weights":[1.8126518E-2,-8.68225E-1,9.4202355E-2,-4.0878985E-2,-1.9177864E-1,-1.7726491E-1,1.6132502E-1,-4.8150024E-1,2.5696343E-1,-8.964746E-1,5.400369E-1,7.432053E-1,1.09101325E-1,-2.3130755E-1,-2.9113066E-1,1.420171E-1,2.3167545E-2,1.0611085E0,1.1749514E-3,-1.3034756E-1,5.345048E-1,-1.5433049E-1,8.5937865E-2,1.3090768E0,-1.0961997E-1,-8.287534E-1,1.9830808E-1,-4.7256148E-1,3.1042996E-1,7.297038E-1,3.7601285E-2,2.7923593E-1,6.901757E-2,-2.2077398E-1,-2.3845902E-2,-1.899132E-2,-1.7918143E-1,-1.0462343E-1,1.3972686E-1,1.7126486E-1,-1.4604785E-2,-1.219154E-1,5.9289128E-2],"categories":[],"categories_nodes":[],"categories_segments":[],"categories_sizes":[],"default_left":[0,0,0,0,0,0,0,0,0,0,0,0,0,0,0,0,0,0,0,0,0,0,0,0,0,0,0,0,0,0,0,0,0,0,0,0,0,0,0,0,0,0,0],"id":11,"left_children":[1,3,5,-1,-1,-1,7,9,11,13,15,17,19,-1,21,-1,-1,23,25,27,29,-1,-1,31,-1,33,-1,35,37,39,41,-1,-1,-1,-1,-1,-1,-1,-1,-1,-1,-1,-1],"loss_changes":[5.343854E0,1.8117237E-1,4.9324594E0,0E0,0E0,0E0,4.362979E0,4.417305E0,4.281351E0,7.611885E-1,1.5610242E-1,3.295755E0,4.9284835E0,0E0,1.5203626E0,0E0,0E0,4.621458E0,5.0901074E0,4.8716874E0,1.6578794E0,0E0,0E0,2.5478172E-1,0E0,5.262377E-1,0E0,2.7972007E0,4.990878E0,1.3249722E0,1.178248E0,0E0,0E0,0E0,0E0,0E0,0E0,0E0,0E0,0E0,0E0,0E0,0E0],"parents":[2147483647,0,0,1,1,2,2,6,6,7,7,8,8,9,9,10,10,11,11,12,12,14,14,17,17,18,18,19,19,20,20,23,23,25,25,27,27,28,28,29,29,30,30],"right_children":[2,4,6,-1,-1,-1,8,10,12,14,16,18,20,-1,22,-1,-1,24,26,28,30,-1,-1,32,-1,34,-1,36,38,40,42,-1,-1,-1,-1,-1,-1,-1,-1,-1,-1,-1,-1],"split_conditions":[5.136719E-1,1.738E3,1.9825E3,-4.0878985E-2,-1.9177864E-1,-1.7726491E-1,1.1619537E1,2.9526162E-1,1.1636625E1,2.044E3,5.209175E-1,1.06189674E2,4.174E3,-2.3130755E-1,2.7996947E-3,1.420171E-1,2.3167545E-2,3.064793E-1,7.5937785E-2,1.1675974E1,4.797607E-1,-1.5433049E-1,8.5937865E-2,3.8395E3,-1.0961997E-1,2.096E3,1.9830808E-1,1.5719298E-1,1.0614139E2,1.0620365E2,4.896104E-1,2.7923593E-1,6.901757E-2,-2.2077398E-1,-2.3845902E-2,-1.899132E-2,-1.7918143E-1,-1.0462343E-1,1.3972686E-1,1.7126486E-1,-1.4604785E-2,-1.219154E-1,5.9289128E-2],"split_indices":[9,2,7,0,0,0,1,12,1,2,8,0,5,0,11,0,0,12,11,1,8,0,0,6,0,2,0,12,0,0,8,0,0,0,0,0,0,0,0,0,0,0,0],"split_type":[0,0,0,0,0,0,0,0,0,0,0,0,0,0,0,0,0,0,0,0,0,0,0,0,0,0,0,0,0,0,0,0,0,0,0,0,0,0,0,0,0,0,0],"sum_hessian":[7.703753E1,5.266419E0,7.177111E1,1.0239388E0,4.2424803E0,3.8164165E0,6.79547E1,8.27829E0,5.9676407E1,5.9739466E0,2.3043432E0,1.2976635E1,4.669977E1,3.5417998E0,2.4321468E0,1.1638483E0,1.140495E0,8.783549E0,4.1930857E0,3.0324478E1,1.6375294E1,1.4170052E0,1.0151416E0,7.772385E0,1.0111637E0,2.3701115E0,1.8229742E0,1.7030281E1,1.3294197E1,1.1420477E1,4.954817E0,6.717113E0,1.0552723E0,1.3073857E0,1.0627258E0,9.648533E0,7.381748E0,4.1137276E0,9.1804695E0,9.806805E0,1.6136714E0,1.0284442E0,3.9263725E0],"tree_param":{"num_deleted":"0","num_feature":"14","num_nodes":"43","size_leaf_vector":"1"}},{"base_weights":[-1.8069228E-2,-6.6718346E-1,9.5844634E-2,-1.8369554E-2,-7.679383E-1,-1.761901E-1,1.6620438E-1,-2.058761E-1,-4.03053E-1,-1.3351192E-3,5.8848804E-1,1.412214E-1,-1.5888308E-1,-1.8848898E-1,5.005182E-1,7.532681E-1,-4.4957256E-1,-4.267746E-1,1.0348411E-1,9.5642996E-1,1.1927139E-1,3.5197702E-1,1.0205826E0,-1.9786857E-1,4.815313E-2,-5.41724E-2,-1.1371139E0,9.499147E-1,-3.4754276E-1,2.3304148E-1,-8.625523E-3,3.3050296E-1,-1.0917113E-1,7.81845E-1,-1.2631136E-1,2.1984978E-2,2.2305906E-1,-9.818091E-2,1.0638531E-1,6.99666E-2,-3.0543754E-1,2.2476092E-2,2.2250195E-1,-1.5076318E-1,1.1326819E-1,-9.374776E-2,1.3283429E-1,2.1008451E-1,5.444794E-3,-1.6316064E-1,1.1565413E-1],"categories":[],"categories_nodes":[],"categories_segments":[],"categories_sizes":[],"default_left":[0,0,0,0,0,0,0,0,0,0,0,0,0,0,0,0,0,0,0,0,0,0,0,0,0,0,0,0,0,0,0,0,0,0,0,0,0,0,0,0,0,0,0,0,0,0,0,0,0,0,0],"id":12,"left_children":[1,3,5,-1,7,-1,9,-1,11,13,15,-1,-1,17,19,21,23,25,27,29,31,33,35,-1,-1,37,39,41,43,-1,-1,45,-1,47,49,-1,-1,-1,-1,-1,-1,-1,-1,-1,-1,-1,-1,-1,-1,-1,-1],"loss_changes":[6.1335955E0,6.471257E-1,5.005771E0,0E0,5.771756E-1,0E0,4.7265215E0,0E0,3.1587014E0,4.679704E0,3.5844545E0,0E0,0E0,2.5686593E0,2.2384176E0,1.4375477E0,1.4401928E0,5.2781596E0,6.862371E0,1.306788E0,1.376485E0,1.7894462E0,6.990843E-1,0E0,0E0,3.9172268E0,4.5314236E0,7.21457E-1,4.8432784E0,0E0,0E0,2.2005372E0,0E0,8.773346E-1,2.7809153E0,0E0,0E0,0E0,0E0,0E0,0E0,0E0,0E0,0E0,0E0,0E0,0E0,0E0,0E0,0E0,0E0],"parents":[2147483647,0,0,1,1,2,2,4,4,6,6,8,8,9,9,10,10,13,13,14,14,15,15,16,16,17,17,18,18,19,19,20,20,21,21,22,22,25,25,26,26,27,27,28,28,31,31,33,33,34,34],"right_children":[2,4,6,-1,8,-1,10,-1,12,14,16,-1,-1,18,20,22,24,26,28,30,32,34,36,-1,-1,38,40,42,44,-1,-1,46,-1,48,50,-1,-1,-1,-1,-1,-1,-1,-1,-1,-1,-1,-1,-1,-1,-1,-1],"split_conditions":[3.268E3,1.565E3,2.048E3,-1.8369554E-2,1.964E3,-1.761901E-1,1.1674944E1,-2.058761E-1,2.03E3,2.8796387E0,2.9748988E-1,1.412214E-1,-1.5888308E-1,1.725E3,4.4364998E-1,3.689E3,3.392E3,3.643E3,2.144E3,1.963E3,1.623E3,7.422949E-2,1.25387E0,-1.9786857E-1,4.815313E-2,4.04E3,1.81E3,1.7355E3,4.148E3,2.3304148E-1,-8.625523E-3,1.72E3,-1.0917113E-1,2.198E3,1.4401622E-1,2.1984978E-2,2.2305906E-1,-9.818091E-2,1.0638531E-1,6.99666E-2,-3.0543754E-1,2.2476092E-2,2.2250195E-1,-1.5076318E-1,1.1326819E-1,-9.374776E-2,1.3283429E-1,2.1008451E-1,5.444794E-3,-1.6316064E-1,1.1565413E-1],"split_indices":[5,4,7,0,2,0,1,0,2,9,12,0,0,4,8,5,6,6,2,3,2,12,9,0,0,5,3,4,5,0,0,3,0,3,12,0,0,0,0,0,0,0,0,0,0,0,0,0,0,0,0],"split_type":[0,0,0,0,0,0,0,0,0,0,0,0,0,0,0,0,0,0,0,0,0,0,0,0,0,0,0,0,0,0,0,0,0,0,0,0,0,0,0,0,0,0,0,0,0,0,0,0,0,0,0],"sum_hessian":[8.1085396E1,1.138029E1,6.970511E1,1.9808326E0,9.399457E0,3.9094913E0,6.5795616E1,4.4149895E0,4.984468E0,4.782003E1,1.7975584E1,1.0902796E0,3.8941886E0,3.5285564E1,1.2534468E1,1.5749832E1,2.2257526E0,1.9174854E1,1.611071E1,5.021203E0,7.5132647E0,7.2231674E0,8.526665E0,1.0060229E0,1.2197295E0,1.3283418E1,5.891436E0,5.2159514E0,1.0894758E1,4.016545E0,1.0046583E0,6.084153E0,1.429112E0,3.469888E0,3.7532794E0,1.0068135E0,7.5198507E0,7.704685E0,5.5787325E0,1.2457695E0,4.6456666E0,1.122918E0,4.0930333E0,7.663188E0,3.2315705E0,1.6727008E0,4.4114523E0,2.2699883E0,1.1998997E0,1.817172E0,1.9361074E0],"tree_param":{"num_deleted":"0","num_feature":"14","num_nodes":"51","size_leaf_vector":"1"}},{"base_weights":[-8.023964E-2,-7.107308E-1,4.5071173E-2,-2.0969239E-1,-2.709456E-1,-6.266917E-1,1.6595973E-1,1.6319165E-1,-1.442037E-1,-8.1413686E-1,6.594562E-2,-4.0339312E-1,3.1666782E-1,-1.2909615E-1,7.2389984E-1,-2.1667758E-1,-4.3832013E-1,1.0354942E-1,-8.695666E-2,1.06467485E-1,-6.018584E-1,3.9894074E-1,-1.5997586E-1,1.9276254E-1,2.657699E-2,8.3832055E-2,-1.7836161E-1,-2.673159E-1,2.7452925E-2,2.23359E-1,7.693633E-1,7.2299576E-1,-8.280894E-1,3.5799873E-1,-7.9094577E-1,9.282214E-1,2.7940345E-1,3.4276377E-2,1.7144398E-1,-3.2399654E-2,-2.1101084E-1,1.704225E-2,1.2850349E-1,1.9598103E-3,-2.4921261E-1,2.0402856E-1,1.7433692E-2,-1.2461827E-1,1.395493E-1],"categories":[],"categories_nodes":[],"categories_segments":[],"categories_sizes":[],"default_left":[0,0,0,0,0,0,0,0,0,0,0,0,0,0,0,0,0,0,0,0,0,0,0,0,0,0,0,0,0,0,0,0,0,0,0,0,0,0,0,0,0,0,0,0,0,0,0,0,0],"id":13,"left_children":[1,3,5,-1,7,9,11,13,-1,15,17,19,21,-1,23,-1,25,-1,-1,-1,27,29,-1,-1,-1,-1,-1,-1,31,33,35,37,39,41,43,45,47,-1,-1,-1,-1,-1,-1,-1,-1,-1,-1,-1,-1],"loss_changes":[6.194656E0,1.645616E0,5.464462E0,0E0,1.4838235E0,1.3878956E0,4.995704E0,2.4507277E0,0E0,3.51099E-1,9.295446E-1,2.6071808E0,4.4913087E0,0E0,3.0504155E-1,0E0,2.3517625E0,0E0,0E0,0E0,4.950935E0,2.6228108E0,0E0,0E0,0E0,0E0,0E0,0E0,4.5884776E0,4.4566097E0,7.8429794E-1,1.6642952E-1,3.540814E-1,2.092592E0,1.4308686E0,6.605997E-1,2.2143998E0,0E0,0E0,0E0,0E0,0E0,0E0,0E0,0E0,0E0,0E0,0E0,0E0],"parents":[2147483647,0,0,1,1,2,2,4,4,5,5,6,6,7,7,9,9,10,10,11,11,12,12,14,14,16,16,20,20,21,21,28,28,29,29,30,30,31,31,32,32,33,33,34,34,35,35,36,36],"right_children":[2,4,6,-1,8,10,12,14,-1,16,18,20,22,-1,24,-1,26,-1,-1,-1,28,30,-1,-1,-1,-1,-1,-1,32,34,36,38,40,42,44,46,48,-1,-1,-1,-1,-1,-1,-1,-1,-1,-1,-1,-1],"split_conditions":[1.745E3,1.0617054E2,1.1620087E1,-2.0969239E-1,2.8853816E-1,1.0620422E2,1.0614139E2,2.2851002E0,-1.442037E-1,1.7125E3,1.1612474E1,1.6465E3,2.22E3,-1.2909615E-1,1.06184456E2,-2.1667758E-1,2.052E3,1.0354942E-1,-8.695666E-2,1.06467485E-1,1.951E3,2.473997E0,-1.5997586E-1,1.9276254E-1,2.657699E-2,8.3832055E-2,-1.7836161E-1,-2.673159E-1,2.194E3,2.2486603E0,1.06198944E2,3.526E3,1.1657918E1,2.042E3,1.0619165E2,2E3,1.06208565E2,3.4276377E-2,1.7144398E-1,-3.2399654E-2,-2.1101084E-1,1.704225E-2,1.2850349E-1,1.9598103E-3,-2.4921261E-1,2.0402856E-1,1.7433692E-2,-1.2461827E-1,1.395493E-1],"split_indices":[3,0,1,0,12,0,0,9,0,4,1,2,4,0,0,0,3,0,0,0,3,9,0,0,0,0,0,0,2,9,0,5,1,3,0,3,0,0,0,0,0,0,0,0,0,0,0,0,0],"split_type":[0,0,0,0,0,0,0,0,0,0,0,0,0,0,0,0,0,0,0,0,0,0,0,0,0,0,0,0,0,0,0,0,0,0,0,0,0,0,0,0,0,0,0,0,0,0,0,0,0],"sum_hessian":[7.700062E1,1.1992017E1,6.50086E1,6.000176E0,5.991841E0,9.276452E0,5.5732147E1,3.374363E0,2.617478E0,7.162644E0,2.1138077E0,1.1313765E1,4.441838E1,1.3197649E0,2.054598E0,3.0760643E0,4.0865793E0,1.0933262E0,1.0204816E0,1.6853498E0,9.628414E0,4.196862E1,2.4497616E0,1.0127238E0,1.0418743E0,1.4398075E0,2.646772E0,3.923662E0,5.7047524E0,2.9560036E1,1.2408586E1,3.2320623E0,2.47269E0,2.666725E1,2.8927844E0,8.694962E0,3.7136238E0,1.0781366E0,2.153926E0,1.0639608E0,1.4087293E0,1.42777195E1,1.2389531E1,1.4029202E0,1.4898641E0,7.646334E0,1.0486277E0,1.0211855E0,2.6924384E0],"tree_param":{"num_deleted":"0","num_feature":"14","num_nodes":"49","size_leaf_vector":"1"}},{"base_weights":[7.5527234E-4,-1.8173225E-1,7.901451E-2,2.1339701E-1,-3.100477E-1,-2.0467376E-2,5.690985E-1,-8.5303104E-1,-1.7733898E-2,2.6177096E-1,-3.6265483E-1,7.5388795E-1,1.4115605E-1,3.608779E-2,-1.1510258E0,2.6496276E-1,-8.2424873E-1,-2.69337E-1,5.7898337E-1,-5.2860177E-1,4.3828624E-1,8.9044225E-1,-4.0309165E-2,-1.5945348E-1,5.9755075E-1,-1.495467E0,1.6697923E-2,6.820685E-1,-2.7427185E-1,6.0623247E-2,-2.907088E-1,1.1974037E-1,-6.266376E-1,-1.18569545E-1,7.558011E-1,-7.0013416E-1,5.673155E-2,1.1073623E-1,2.0588718E-2,2.2253795E-1,2.1362321E-1,1.8074985E-1,-9.01788E-3,-7.731328E-2,-3.5331997E-1,6.827861E-2,2.1801423E-1,-7.385666E-1,1.3380276E-1,1.2556042E-2,-2.8123373E-1,-1.2305635E-2,1.9982572E-1,2.4546163E-2,-1.8094052E-1,-7.9447925E-2,1.6303629E-1,-1.0974579E-1,1.2374216E-1,-1.8865864E-1,-1.9283114E-2],"categories":[],"categories_nodes":[],"categories_segments":[],"categories_sizes":[],"default_left":[0,0,0,0,0,0,0,0,0,0,0,0,0,0,0,0,0,0,0,0,0,0,0,0,0,0,0,0,0,0,0,0,0,0,0,0,0,0,0,0,0,0,0,0,0,0,0,0,0,0,0,0,0,0,0,0,0,0,0,0,0],"id":14,"left_children":[1,-1,3,5,7,9,11,13,15,17,19,21,23,-1,25,27,29,31,33,35,37,39,-1,-1,41,43,-1,45,47,-1,-1,-1,49,-1,51,53,-1,-1,-1,55,-1,-1,-1,-1,-1,57,-1,59,-1,-1,-1,-1,-1,-1,-1,-1,-1,-1,-1,-1,-1],"loss_changes":[5.1677866E0,0E0,3.5612555E0,4.1942015E0,2.7735639E0,3.1178718E0,1.473527E0,2.0947137E0,3.0552487E0,3.1435733E0,2.1678162E0,1.9699459E0,3.5839906E0,0E0,2.204804E0,2.4294584E0,2.9042058E0,2.6434839E0,2.8142827E0,1.9430027E0,6.0904205E-2,1.2091055E0,0E0,0E0,1.1138089E0,4.828434E-1,0E0,1.4051712E0,2.7108645E0,0E0,0E0,0E0,3.135248E0,0E0,2.1223059E0,1.8996344E0,0E0,0E0,0E0,1.7287552E0,0E0,0E0,0E0,0E0,0E0,1.5030476E0,0E0,4.1746163E-1,0E0,0E0,0E0,0E0,0E0,0E0,0E0,0E0,0E0,0E0,0E0,0E0,0E0],"parents":[2147483647,0,0,2,2,3,3,4,4,5,5,6,6,7,7,8,8,9,9,10,10,11,11,12,12,14,14,15,15,16,16,17,17,18,18,19,19,20,20,21,21,24,24,25,25,27,27,28,28,32,32,34,34,35,35,39,39,45,45,47,47],"right_children":[2,-1,4,6,8,10,12,14,16,18,20,22,24,-1,26,28,30,32,34,36,38,40,-1,-1,42,44,-1,46,48,-1,-1,-1,50,-1,52,54,-1,-1,-1,56,-1,-1,-1,-1,-1,58,-1,60,-1,-1,-1,-1,-1,-1,-1,-1,-1,-1,-1,-1,-1],"split_conditions":[3.022E3,-1.8173225E-1,3.828E3,3.533E3,1.06176544E2,1.0618094E2,1.0619366E2,1.867E3,1.0620924E2,1.06139336E2,1.06214935E2,1.6631187E0,1.0620422E2,3.608779E-2,2.29E3,2.198E3,3.978E3,1.696E3,6.550725E-2,1.4173728E0,1.0621822E2,9.973198E-2,-4.0309165E-2,-1.5945348E-1,1.1647105E1,1.031202E0,1.6697923E-2,2.151E3,1.12043746E-1,6.0623247E-2,-2.907088E-1,1.1974037E-1,1.3093355E0,-1.18569545E-1,1.5445E3,1.524055E0,5.673155E-2,1.1073623E-1,2.0588718E-2,3.702E3,2.1362321E-1,1.8074985E-1,-9.01788E-3,-7.731328E-2,-3.5331997E-1,1.1652614E1,2.1801423E-1,1.0619089E2,1.3380276E-1,1.2556042E-2,-2.8123373E-1,-1.2305635E-2,1.9982572E-1,2.4546163E-2,-1.8094052E-1,-7.9447925E-2,1.6303629E-1,-1.0974579E-1,1.2374216E-1,-1.8865864E-1,-1.9283114E-2],"split_indices":[6,0,6,6,0,0,0,2,0,0,0,13,0,0,2,3,5,3,12,13,0,12,0,0,1,9,0,2,12,0,0,0,13,0,4,9,0,0,0,6,0,0,0,0,0,1,0,0,0,0,0,0,0,0,0,0,0,0,0,0,0],"split_type":[0,0,0,0,0,0,0,0,0,0,0,0,0,0,0,0,0,0,0,0,0,0,0,0,0,0,0,0,0,0,0,0,0,0,0,0,0,0,0,0,0,0,0,0,0,0,0,0,0,0,0,0,0,0,0,0,0,0,0,0,0],"sum_hessian":[7.0602806E1,4.7535033E0,6.5849304E1,4.927959E1,1.6569714E1,3.0300358E1,1.897923E1,5.1273236E0,1.144239E1,1.6733484E1,1.3566874E1,1.2723465E1,6.2557664E0,1.2358358E0,3.891488E0,8.9698E0,2.47259E0,6.3135867E0,1.0419897E1,1.1520058E1,2.046816E0,1.1191898E1,1.5315666E0,1.8025476E0,4.453219E0,2.8773117E0,1.0141761E0,4.908287E0,4.0615134E0,1.071447E0,1.401143E0,1.643991E0,4.6695957E0,1.0576456E0,9.362252E0,9.625412E0,1.8946457E0,1.0384008E0,1.0084152E0,2.824954E0,8.366944E0,2.7409384E0,1.7122804E0,1.0418828E0,1.8354291E0,2.426006E0,2.482281E0,2.867251E0,1.1942625E0,2.9659612E0,1.7036345E0,2.3192167E0,7.043035E0,1.9961327E0,7.629279E0,1.5420339E0,1.2829201E0,1.1452882E0,1.2807178E0,1.8185226E0,1.0487283E0],"tree_param":{"num_deleted":"0","num_feature":"14","num_nodes":"61","size_leaf_vector":"1"}},{"base_weights":[-2.6755556E-2,-4.6588564E-1,1.22621045E-1,-6.944095E-1,-3.7460074E-2,-1.4882982E-1,1.7689182E-1,-2.0028515E-1,-2.3297822E-1,-4.718418E-1,1.4612459E-1,7.397546E-2,8.5001844E-1,-7.1367115E-1,2.976007E-1,4.3089774E-2,-1.7334494E-1,1.7639221E-1,-4.8951015E-1,1.755247E-2,2.0336418E-1,-1.825553E-1,-2.0393163E-2,-3.6593318E-2,5.2107155E-1,-1.4677278E-3,6.979678E-1,-7.668E-1,4.2019594E-2,1.4363082E-1,1.3757886E-2,3.010955E-1,-3.3078328E-1,8.9164495E-1,-6.170177E-2,-1.0145929E0,2.1954646E-2,-6.0527314E-2,1.158059E-1,-2.5057313E-1,-1.3772035E-2,2.1983664E-1,1.373895E-2,-6.598773E-2,-2.5304255E-1],"categories":[],"categories_nodes":[],"categories_segments":[],"categories_sizes":[],"default_left":[0,0,0,0,0,0,0,0,0,0,0,0,0,0,0,0,0,0,0,0,0,0,0,0,0,0,0,0,0,0,0,0,0,0,0,0,0,0,0,0,0,0,0,0,0],"id":15,"left_children":[1,3,5,7,9,-1,11,13,-1,15,-1,17,19,21,23,-1,-1,25,27,-1,-1,-1,-1,-1,29,31,33,35,-1,-1,-1,37,39,41,-1,43,-1,-1,-1,-1,-1,-1,-1,-1,-1],"loss_changes":[4.5961018E0,1.7139575E0,2.597684E0,2.447803E0,2.7600005E0,0E0,3.410823E0,1.958884E0,0E0,1.6065959E0,0E0,2.6595728E0,7.441411E-1,3.524835E-1,5.436435E-1,0E0,0E0,3.5694113E0,1.5428641E0,0E0,0E0,0E0,0E0,0E0,2.2775191E-1,3.0571074E0,2.1822186E0,1.2660561E0,0E0,0E0,0E0,2.8588228E0,3.4614158E0,1.3697205E0,0E0,3.1044483E-1,0E0,0E0,0E0,0E0,0E0,0E0,0E0,0E0,0E0],"parents":[2147483647,0,0,1,1,2,2,3,3,4,4,6,6,7,7,9,9,11,11,12,12,13,13,14,14,17,17,18,18,24,24,25,25,26,26,27,27,31,31,32,32,33,33,35,35],"right_children":[2,4,6,8,10,-1,12,14,-1,16,-1,18,20,22,24,-1,-1,26,28,-1,-1,-1,-1,-1,30,32,34,36,-1,-1,-1,38,40,42,-1,44,-1,-1,-1,-1,-1,-1,-1,-1,-1],"split_conditions":[1.3790323E0,2.388E3,1.429E3,1.06187965E2,1.8621206E-1,-1.4882982E-1,3.2968035E-1,1.0724995E0,-2.3297822E-1,1.1643806E1,1.4612459E-1,2.9196218E-1,1.5922216E0,1.061752E2,1.0614445E2,4.3089774E-2,-1.7334494E-1,4.0935874E-1,3.1349903E-1,1.755247E-2,2.0336418E-1,-1.825553E-1,-2.0393163E-2,-3.6593318E-2,1.25387E0,1.9222554E-2,1.78E3,1.84E3,4.2019594E-2,1.4363082E-1,1.3757886E-2,-3.3882417E-2,8.3042866E-1,2.6964393E-1,-6.170177E-2,1.0615271E2,2.1954646E-2,-6.0527314E-2,1.158059E-1,-2.5057313E-1,-1.3772035E-2,2.1983664E-1,1.373895E-2,-6.598773E-2,-2.5304255E-1],"split_indices":[9,2,2,0,8,0,12,9,0,1,0,12,13,0,0,0,0,8,12,0,0,0,0,0,9,11,2,3,0,0,0,11,13,12,0,0,0,0,0,0,0,0,0,0,0],"split_type":[0,0,0,0,0,0,0,0,0,0,0,0,0,0,0,0,0,0,0,0,0,0,0,0,0,0,0,0,0,0,0,0,0,0,0,0,0,0,0,0,0,0,0,0,0],"sum_hessian":[6.819615E1,1.6771942E1,5.142421E1,1.0532843E1,6.2391E0,2.2810638E0,4.9143147E1,5.832719E0,4.700124E0,4.2316318E0,2.0074685E0,4.3588646E1,5.5545006E0,2.6582792E0,3.17444E0,1.7099224E0,2.5217092E0,3.7465954E1,6.1226907E0,1.2712538E0,4.2832465E0,1.6341821E0,1.0240971E0,1.0651399E0,2.1093E0,2.8682322E1,8.783632E0,4.3160005E0,1.8066901E0,1.0596923E0,1.0496076E0,1.4992994E1,1.3689327E1,7.461838E0,1.3217949E0,3.2420676E0,1.0739329E0,4.6983333E0,1.02946615E1,2.1913822E0,1.1497945E1,5.6909785E0,1.770859E0,1.4894936E0,1.752574E0],"tree_param":{"num_deleted":"0","num_feature":"14","num_nodes":"45","size_leaf_vector":"1"}},{"base_weights":[-4.7488503E-2,-6.7159295E-1,1.4232074E-2,-7.4476385E-1,-3.140879E-2,5.209426E-1,-9.311225E-2,-3.2941416E-2,-1.692879E-1,-3.5148752E-1,8.5215026E-1,-5.558806E-1,9.579564E-3,1.3611524E-2,-1.4787365E-1,-4.7556623E-3,9.76475E-1,-9.5951396E-1,-1.0645198E-1,8.384532E-2,-1.6749911E-1,4.428698E-2,2.177449E-1,-2.1628153E-1,-5.290214E-2,-1.4208081E-1,2.8042126E-1,-6.507674E-2,5.692956E-1,-4.484844E-2,1.15929164E-1,3.1783393E-1,-3.4949154E-1,7.326327E-1,-4.5893114E-2,-7.815295E-2,1.0110748E-1,-8.80591E-2,1.1352062E-1,1.3032816E-2,1.862828E-1],"categories":[],"categories_nodes":[],"categories_segments":[],"categories_sizes":[],"default_left":[0,0,0,0,0,0,0,0,0,0,0,0,0,0,0,0,0,0,0,0,0,0,0,0,0,0,0,0,0,0,0,0,0,0,0,0,0,0,0,0,0],"id":16,"left_children":[1,3,5,7,-1,9,11,-1,-1,13,15,17,19,-1,-1,-1,21,23,25,27,-1,-1,-1,-1,-1,-1,29,31,33,-1,-1,35,37,39,-1,-1,-1,-1,-1,-1,-1],"loss_changes":[2.6210206E0,1.1352992E-1,3.457442E0,1.6093135E-1,0E0,3.5091305E0,2.5033598E0,0E0,0E0,6.62928E-1,9.317827E-1,1.632662E0,2.8383327E0,0E0,0E0,0E0,3.8014984E-1,1.3021088E-1,1.5192789E0,3.0274446E0,0E0,0E0,0E0,0E0,0E0,0E0,7.582815E-1,3.656083E0,1.4483962E0,0E0,0E0,2.1124494E0,1.8449886E0,1.0519052E0,0E0,0E0,0E0,0E0,0E0,0E0,0E0],"parents":[2147483647,0,0,1,1,2,2,3,3,5,5,6,6,9,9,10,10,11,11,12,12,16,16,17,17,18,18,19,19,26,26,27,27,28,28,31,31,32,32,33,33],"right_children":[2,4,6,8,-1,10,12,-1,-1,14,16,18,20,-1,-1,-1,22,24,26,28,-1,-1,-1,-1,-1,-1,30,32,34,-1,-1,36,38,40,-1,-1,-1,-1,-1,-1,-1],"split_conditions":[2.154E3,4.408102E0,1.6205E3,1.2825337E-1,-3.140879E-2,1.738E3,1.06139336E2,-3.2941416E-2,-1.692879E-1,2.8853816E-1,1.508E3,3.599E3,2.208E3,1.3611524E-2,-1.4787365E-1,-4.7556623E-3,1.1617667E1,1.961E3,8.125091E-2,3.092E3,-1.6749911E-1,4.428698E-2,2.177449E-1,-2.1628153E-1,-5.290214E-2,-1.4208081E-1,1.5375924E0,2.609E3,3.742E3,-4.484844E-2,1.15929164E-1,1.652E3,3.911E3,3.715E3,-4.5893114E-2,-7.815295E-2,1.0110748E-1,-8.80591E-2,1.1352062E-1,1.3032816E-2,1.862828E-1],"split_indices":[7,9,2,12,0,3,0,0,0,12,2,6,4,0,0,0,1,2,12,7,0,0,0,0,0,0,9,7,7,0,0,2,6,6,0,0,0,0,0,0,0],"split_type":[0,0,0,0,0,0,0,0,0,0,0,0,0,0,0,0,0,0,0,0,0,0,0,0,0,0,0,0,0,0,0,0,0,0,0,0,0,0,0,0,0],"sum_hessian":[6.679482E1,5.1219225E0,6.16729E1,4.0925364E0,1.029386E0,1.0107627E1,5.1565273E1,1.0011173E0,3.0914192E0,2.764489E0,7.3431377E0,8.5631895E0,4.3002083E1,1.7241398E0,1.0403492E0,1.0132233E0,6.3299146E0,3.913499E0,4.6496906E0,4.036424E1,2.6378427E0,1.2039971E0,5.1259174E0,2.8565295E0,1.0569699E0,1.4889709E0,3.1607196E0,3.1551195E1,8.8130455E0,1.269763E0,1.8909565E0,1.3397072E1,1.8154123E1,7.3855724E0,1.4274726E0,2.5790586E0,1.0818013E1,1.6991638E1,1.1624851E0,1.9994911E0,5.3860817E0],"tree_param":{"num_deleted":"0","num_feature":"14","num_nodes":"41","size_leaf_vector":"1"}},{"base_weights":[9.3853906E-2,-1.4930646E-1,1.9817245E-1,-6.227748E-1,2.5332245E-1,-3.249145E-2,-1.4508013E-1,8.589981E-2,6.565461E-1,-2.0961869E-1,4.3397313E-1,-1.400848E-1,8.2219774E-1,5.9802204E-2,-7.900694E-1,9.8561324E-2,7.026125E-1,2.3187952E-1,2.903307E-1,-2.2943316E-1,4.4253114E-1,-1.3523704E0,-7.553413E-2,6.221845E-1,-3.2604313E-1,-4.2761814E-2,8.493609E-1,-2.5263503E-1,7.565466E-1,-1.0989126E-1,1.0397092E-1,-3.1085247E-2,1.2873885E-1,-3.5033506E-1,-1.690902E-2,-1.5477113E-1,1.17630556E-1,2.2037433E-1,-8.142164E-2,-2.0261692E-1,5.0348997E-2,-1.26659665E-2,2.0697783E-1,6.3872196E-2,-1.5777348E-1,2.0384164E-1,2.9741341E-2],"categories":[],"categories_nodes":[],"categories_segments":[],"categories_sizes":[],"default_left":[0,0,0,0,0,0,0,0,0,0,0,0,0,0,0,0,0,0,0,0,0,0,0,0,0,0,0,0,0,0,0,0,0,0,0,0,0,0,0,0,0,0,0,0,0,0,0],"id":17,"left_children":[1,-1,3,5,7,-1,-1,9,11,13,15,-1,17,19,21,23,25,-1,27,29,31,33,35,37,39,-1,41,43,45,-1,-1,-1,-1,-1,-1,-1,-1,-1,-1,-1,-1,-1,-1,-1,-1,-1,-1],"loss_changes":[5.8498807E0,0E0,2.8130846E0,7.0219874E-2,3.7016394E0,0E0,0E0,4.255402E0,4.2132998E0,3.5768847E0,1.6351271E0,0E0,2.3322906E0,1.9108691E0,2.8008962E0,2.3317945E0,1.5721664E0,0E0,1.9904594E0,2.6758513E0,9.873711E-1,1.868938E0,2.420764E0,2.735385E0,2.6145306E0,0E0,1.6088004E0,1.4890703E0,4.9898052E-1,0E0,0E0,0E0,0E0,0E0,0E0,0E0,0E0,0E0,0E0,0E0,0E0,0E0,0E0,0E0,0E0,0E0,0E0],"parents":[2147483647,0,0,2,2,3,3,4,4,7,7,8,8,9,9,10,10,12,12,13,13,14,14,15,15,16,16,18,18,19,19,20,20,21,21,22,22,23,23,24,24,26,26,27,27,28,28],"right_children":[2,-1,4,6,8,-1,-1,10,12,14,16,-1,18,20,22,24,26,-1,28,30,32,34,36,38,40,-1,42,44,46,-1,-1,-1,-1,-1,-1,-1,-1,-1,-1,-1,-1,-1,-1,-1,-1,-1,-1],"split_conditions":[1.8331113E-1,-1.4930646E-1,2.058E3,1.1636372E1,2.754777E0,-3.249145E-2,-1.4508013E-1,1.74E3,2.8239012E-1,3.708E3,3.789E3,-1.400848E-1,2.8853816E-1,1.625E3,1.1650585E1,2.946E3,3.57E3,2.3187952E-1,4.8335868E-1,1.4364985E0,2.7661452E-1,3.904E3,1.8671523E0,1.0188042E-2,3.7415E3,-4.2761814E-2,1.0586797E0,3.305E3,1.06176544E2,-1.0989126E-1,1.0397092E-1,-3.1085247E-2,1.2873885E-1,-3.5033506E-1,-1.690902E-2,-1.5477113E-1,1.17630556E-1,2.2037433E-1,-8.142164E-2,-2.0261692E-1,5.0348997E-2,-1.26659665E-2,2.0697783E-1,6.3872196E-2,-1.5777348E-1,2.0384164E-1,2.9741341E-2],"split_indices":[8,0,7,1,9,0,0,4,8,6,5,0,12,4,1,7,6,0,8,13,8,6,9,11,6,0,9,6,0,0,0,0,0,0,0,0,0,0,0,0,0,0,0,0,0,0,0],"split_type":[0,0,0,0,0,0,0,0,0,0,0,0,0,0,0,0,0,0,0,0,0,0,0,0,0,0,0,0,0,0,0,0,0,0,0,0,0,0,0,0,0,0,0,0,0,0,0],"sum_hessian":[6.404024E1,6.3918066E0,5.7648434E1,2.9810457E0,5.4667385E1,1.0143392E0,1.9667066E0,3.948559E1,1.5181793E1,2.1570095E1,1.7915499E1,1.3004653E0,1.3881329E1,1.5344701E1,6.225394E0,8.575447E0,9.340052E0,7.773268E0,6.1080604E0,8.967971E0,6.376729E0,2.9842737E0,3.24112E0,3.63161E0,4.9438367E0,1.2261226E0,8.113929E0,3.033404E0,3.0746562E0,6.470917E0,2.4970539E0,1.6624519E0,4.7142773E0,1.979262E0,1.0050116E0,1.4984635E0,1.7426566E0,2.4290652E0,1.2025445E0,1.9142451E0,3.0295918E0,1.4820013E0,6.631928E0,1.6634486E0,1.3699555E0,1.6743574E0,1.4002988E0],"tree_param":{"num_deleted":"0","num_feature":"14","num_nodes":"47","size_leaf_vector":"1"}},{"base_weights":[-4.104563E-2,-1.5577221E-1,4.325232E-1,-3.7733555E-1,3.3345524E-2,-9.2767246E-2,7.627521E-1,-7.535853E-1,-2.4462298E-2,5.822127E-1,-8.793629E-2,-6.629794E-1,5.08443E-1,8.779259E-1,4.3439837E-3,2.5758082E-2,-8.6128455E-1,3.92377E-1,-4.2912704E-1,-1.2043269E-2,1.6806354E-1,-4.3289942E-1,1.07693136E-1,-1.7460446E-1,-1.9064358E-2,1.3411577E-1,1.5460043E-2,4.46735E-2,1.9174902E-1,-9.7749764E-1,-7.795272E-3,-3.625708E-1,2.16812E-1,-6.619353E-1,6.45332E-2,-8.224738E-1,1.2380987E-1,2.811017E-1,-6.60281E-1,-5.8373548E-2,-2.1508168E-1,-1.4203525E-1,6.451323E-2,2.3467695E-2,-1.0072408E0,-2.3706658E-1,-3.874624E-1,7.463597E-1,-1.9457138E-1,-4.9881652E-1,5.0361127E-1,-6.8922564E-3,-2.0289169E-1,-2.5526658E-1,-3.2187622E-2,-1.7697631E-1,6.057566E-2,2.033522E-1,1.6961604E-2,-1.3841613E-3,-1.4096598E-1,-4.1771732E-2,1.2258935E-1],"categories":[],"categories_nodes":[],"categories_segments":[],"categories_sizes":[],"default_left":[0,0,0,0,0,0,0,0,0,0,0,0,0,0,0,0,0,0,0,0,0,0,0,0,0,0,0,0,0,0,0,0,0,0,0,0,0,0,0,0,0,0,0,0,0,0,0,0,0,0,0,0,0,0,0,0,0,0,0,0,0,0,0],"id":18,"left_children":[1,3,5,7,9,11,13,15,17,19,21,23,25,27,-1,-1,29,31,33,-1,-1,35,37,-1,-1,-1,-1,-1,-1,39,-1,41,-1,43,-1,45,47,49,51,-1,-1,-1,-1,-1,53,-1,55,57,-1,59,61,-1,-1,-1,-1,-1,-1,-1,-1,-1,-1,-1,-1],"loss_changes":[3.4466372E0,2.1413264E0,2.2207482E0,3.0984488E0,1.9368837E0,2.2828305E0,6.396909E-1,1.1874533E0,2.3861735E0,9.224242E-1,1.6709521E0,3.1585348E-1,1.808551E-1,1.3789892E-1,0E0,0E0,9.391241E-1,4.0477676E0,1.4648314E0,0E0,0E0,2.0341182E0,2.3376942E0,0E0,0E0,0E0,0E0,0E0,0E0,2.848072E-1,0E0,1.204519E0,0E0,1.6752226E0,0E0,3.887484E-1,3.8237143E0,2.6607447E0,6.910342E-1,0E0,0E0,0E0,0E0,0E0,7.314787E-1,0E0,1.6171515E0,5.3271604E-1,0E0,3.5835284E-1,1.0082917E0,0E0,0E0,0E0,0E0,0E0,0E0,0E0,0E0,0E0,0E0,0E0,0E0],"parents":[2147483647,0,0,1,1,2,2,3,3,4,4,5,5,6,6,7,7,8,8,9,9,10,10,11,11,12,12,13,13,16,16,17,17,18,18,21,21,22,22,29,29,31,31,33,33,35,35,36,36,37,37,38,38,44,44,46,46,47,47,49,49,50,50],"right_children":[2,4,6,8,10,12,14,16,18,20,22,24,26,28,-1,-1,30,32,34,-1,-1,36,38,-1,-1,-1,-1,-1,-1,40,-1,42,-1,44,-1,46,48,50,52,-1,-1,-1,-1,-1,54,-1,56,58,-1,60,62,-1,-1,-1,-1,-1,-1,-1,-1,-1,-1,-1,-1],"split_conditions":[1.1683607E1,3.3042938E-1,1.0614139E2,2.155E3,1.0455016E0,3.7245E3,4.336E3,-5.5865124E-2,1.1647105E1,1.588E3,1.06155815E2,3.655E3,2.736594E-1,1.06150185E2,4.3439837E-3,2.5758082E-2,1.8633832E-1,1.1631222E1,7.8165233E-1,-1.2043269E-2,1.6806354E-1,1.4406393E0,3.756E3,-1.7460446E-1,-1.9064358E-2,1.3411577E-1,1.5460043E-2,4.46735E-2,1.9174902E-1,-5.818674E-2,-7.795272E-3,8.6881936E-1,2.16812E-1,3.3875E3,6.45332E-2,1.675E3,1.1657918E1,1.724E3,1.0620535E2,-5.8373548E-2,-2.1508168E-1,-1.4203525E-1,6.451323E-2,2.3467695E-2,2.142E3,-2.3706658E-1,1.2363636E0,1.6892552E0,-1.9457138E-1,3.054E3,1.494E3,-6.8922564E-3,-2.0289169E-1,-2.5526658E-1,-3.2187622E-2,-1.7697631E-1,6.057566E-2,2.033522E-1,1.6961604E-2,-1.3841613E-3,-1.4096598E-1,-4.1771732E-2,1.2258935E-1],"split_indices":[1,8,0,2,13,5,5,12,1,4,0,6,12,0,0,0,12,1,13,0,0,13,6,0,0,0,0,0,0,11,0,13,0,5,0,2,1,3,0,0,0,0,0,0,4,0,13,13,0,6,4,0,0,0,0,0,0,0,0,0,0,0,0],"split_type":[0,0,0,0,0,0,0,0,0,0,0,0,0,0,0,0,0,0,0,0,0,0,0,0,0,0,0,0,0,0,0,0,0,0,0,0,0,0,0,0,0,0,0,0,0,0,0,0,0,0,0,0,0,0,0,0,0,0,0,0,0,0,0],"sum_hessian":[6.1197758E1,4.980346E1,1.1394298E1,2.2476078E1,2.7327381E1,4.675742E0,6.718555E0,1.0328154E1,1.2147923E1,4.257835E0,2.3069548E1,2.3470056E0,2.3287368E0,5.6549153E0,1.0636399E0,1.1021824E0,9.225971E0,5.998904E0,6.1490192E0,1.4400978E0,2.8177369E0,7.9094915E0,1.5160055E1,1.3204712E0,1.0265344E0,1.2887399E0,1.0399969E0,1.0351322E0,4.619783E0,7.9182034E0,1.3077679E0,3.095781E0,2.9031234E0,4.7863507E0,1.3626683E0,4.3723917E0,3.5370998E0,1.2884667E1,2.2753882E0,1.4869113E0,6.431292E0,2.0295427E0,1.0662384E0,1.6723764E0,3.1139746E0,1.4434906E0,2.928901E0,2.4600315E0,1.0770684E0,2.5843806E0,1.0300286E1,1.2189114E0,1.0564768E0,1.9771785E0,1.1367961E0,1.5385255E0,1.3903756E0,1.3651212E0,1.0949103E0,1.0679775E0,1.5164031E0,1.2492782E0,9.051008E0],"tree_param":{"num_deleted":"0","num_feature":"14","num_nodes":"63","size_leaf_vector":"1"}},{"base_weights":[-3.7804257E-2,-1.8119241E-1,1.1355924E-2,5.318445E-2,-1.5277527E-1,-1.2121669E-2,6.6622114E-1,-1.315113E-1,2.4244413E-1,-2.574485E-2,8.883533E-1,-7.084616E-1,-2.4564724E-2,-1.3459605E-1,3.8679457E-1,2.6591321E-2,2.1426487E-1,-4.2720795E-2,-2.5001597E-1,5.3987944E-1,-1.2295046E-1,5.14998E-1,-9.294477E-2,-1.1890055E-1,8.640237E-2,1.7507374E-1,-7.6408475E-3,-6.2040072E-2,4.0078737E-2,2.4301083E-1,5.9950024E-2],"categories":[],"categories_nodes":[],"categories_segments":[],"categories_sizes":[],"default_left":[0,0,0,0,0,0,0,0,0,0,0,0,0,0,0,0,0,0,0,0,0,0,0,0,0,0,0,0,0,0,0],"id":19,"left_children":[1,-1,3,5,-1,7,9,11,13,-1,15,17,19,-1,21,-1,-1,23,-1,25,27,29,-1,-1,-1,-1,-1,-1,-1,-1,-1],"loss_changes":[2.6637454E0,0E0,1.9806728E0,2.318118E0,0E0,1.6465669E0,1.0984266E0,2.2541468E0,2.5481167E0,0E0,4.770856E-1,2.009474E0,1.8486235E0,0E0,1.9412649E0,0E0,0E0,1.2003275E0,0E0,9.932934E-1,1.7661796E0,1.749057E0,0E0,0E0,0E0,0E0,0E0,0E0,0E0,0E0,0E0],"parents":[2147483647,0,0,2,2,3,3,5,5,6,6,7,7,8,8,10,10,11,11,12,12,14,14,17,17,19,19,20,20,21,21],"right_children":[2,-1,4,6,-1,8,10,12,14,-1,16,18,20,-1,22,-1,-1,24,-1,26,28,30,-1,-1,-1,-1,-1,-1,-1,-1,-1],"split_conditions":[1.0611446E2,-1.8119241E-1,2.22E3,2.336E3,-1.5277527E-1,2.7780015E0,-8.324053E-2,1.5445E3,2.048E3,-2.574485E-2,3.752E3,1.768E3,1.609E3,-1.3459605E-1,1.952E3,2.6591321E-2,2.1426487E-1,3.978E3,-2.5001597E-1,1.1660549E1,1.782E3,1.0612221E2,-9.294477E-2,-1.1890055E-1,8.640237E-2,1.7507374E-1,-7.6408475E-3,-6.2040072E-2,4.0078737E-2,2.4301083E-1,5.9950024E-2],"split_indices":[0,0,4,2,0,9,11,4,7,0,6,3,4,0,3,0,0,5,0,1,4,0,0,0,0,0,0,0,0,0,0],"split_type":[0,0,0,0,0,0,0,0,0,0,0,0,0,0,0,0,0,0,0,0,0,0,0,0,0,0,0,0,0,0,0],"sum_hessian":[6.1172737E1,2.3442917E0,5.8828445E1,5.6700504E1,2.1279438E0,5.2127632E1,4.5728717E0,3.581434E1,1.6313292E1,1.0905656E0,3.4823062E0,4.7210426E0,3.1093296E1,1.7231973E0,1.4590095E1,1.0156881E0,2.4666183E0,2.601829E0,2.1192133E0,3.9491928E0,2.7144104E1,1.3024364E1,1.5657301E0,1.0865926E0,1.5152366E0,2.1735306E0,1.775662E0,1.7215302E1,9.928802E0,1.9705595E0,1.1053805E1],"tree_param":{"num_deleted":"0","num_feature":"14","num_nodes":"31","size_leaf_vector":"1"}},{"base_weights":[-6.754576E-2,-2.4302703E-1,2.1200801E-1,-5.118898E-1,-7.7099025E-2,-3.7201816E-1,3.714763E-1,-2.4452407E-2,-8.6991787E-1,4.6770953E-2,-7.626338E-1,9.642177E-2,-1.619515E-1,-1.2055161E-1,5.131037E-1,-3.5549623E-1,1.250525E-1,-1.0437284E0,-9.060134E-3,2.0251378E-1,-6.1652726E-1,-2.4770053E-1,2.2338124E-3,6.9915515E-1,2.0896901E-1,-6.5021944E-1,4.025018E-2,-2.3697649E-1,-8.8907525E-2,3.0872673E-1,-1.4284629E-1,-1.9910476E-1,2.7335221E-2,2.7177334E-1,8.8003397E-1,-1.8326056E-1,6.039789E-1,-3.056393E-2,-1.6642354E-1,4.2510855E-1,-1.1368205E-1,1.3658251E-1,-3.2001134E-2,1.9560097E-1,3.563083E-2,8.4849334E-1,-3.9296623E-2,3.4784462E-2,1.5746337E-1,4.839784E-2,1.8783642E-1],"categories":[],"categories_nodes":[],"categories_segments":[],"categories_sizes":[],"default_left":[0,0,0,0,0,0,0,0,0,0,0,0,0,0,0,0,0,0,0,0,0,0,0,0,0,0,0,0,0,0,0,0,0,0,0,0,0,0,0,0,0,0,0,0,0,0,0,0,0,0,0],"id":20,"left_children":[1,3,5,7,9,11,13,15,17,19,21,-1,-1,-1,23,25,-1,27,-1,29,31,-1,-1,33,35,37,-1,-1,-1,39,-1,-1,-1,41,43,-1,45,-1,-1,47,-1,-1,-1,-1,-1,49,-1,-1,-1,-1,-1],"loss_changes":[2.9915056E0,1.6238723E0,2.3404267E0,2.4309468E0,2.0934794E0,2.4734268E0,2.9411573E0,1.7234149E0,1.1096864E0,2.3424566E0,1.4007237E0,0E0,0E0,0E0,8.268032E-1,9.941228E-1,0E0,3.3318996E-2,0E0,1.9865582E0,1.3718889E0,0E0,0E0,5.525451E-1,4.088151E0,2.0546031E-1,0E0,0E0,0E0,1.9721986E0,0E0,0E0,0E0,9.0675473E-1,2.8986406E-1,0E0,1.4367242E0,0E0,0E0,1.2768161E0,0E0,0E0,0E0,0E0,0E0,5.6461096E-2,0E0,0E0,0E0,0E0,0E0],"parents":[2147483647,0,0,1,1,2,2,3,3,4,4,5,5,6,6,7,7,8,8,9,9,10,10,14,14,15,15,17,17,19,19,20,20,23,23,24,24,25,25,29,29,33,33,34,34,36,36,39,39,45,45],"right_children":[2,4,6,8,10,12,14,16,18,20,22,-1,-1,-1,24,26,-1,28,-1,30,32,-1,-1,34,36,38,-1,-1,-1,40,-1,-1,-1,42,44,-1,46,-1,-1,48,-1,-1,-1,-1,-1,50,-1,-1,-1,-1,-1],"split_conditions":[2.446884E0,1.702E3,1.495E3,1.836E3,1.0621017E2,9.983832E-2,6.6883117E-1,3.99E3,1.1665438E1,2.264E3,3.036E3,9.642177E-2,-1.619515E-1,-1.2055161E-1,1.611E3,2.0158029E0,1.250525E-1,1.1651404E1,-9.060134E-3,1.1691994E1,2.584E3,-2.4770053E-1,2.2338124E-3,9.6878864E-2,1.619E3,1.23961665E-1,4.025018E-2,-2.3697649E-1,-8.8907525E-2,3.601E3,-1.4284629E-1,-1.9910476E-1,2.7335221E-2,1.1644198E1,1.834E3,-1.8326056E-1,1.17082536E-1,-3.056393E-2,-1.6642354E-1,3.836E3,-1.1368205E-1,1.3658251E-1,-3.2001134E-2,1.9560097E-1,3.563083E-2,1.8655E3,-3.9296623E-2,3.4784462E-2,1.5746337E-1,4.839784E-2,1.8783642E-1],"split_indices":[9,4,4,3,0,11,13,5,1,3,7,0,0,0,4,9,0,1,0,1,2,0,0,11,4,12,0,0,0,7,0,0,0,1,3,0,11,0,0,6,0,0,0,0,0,3,0,0,0,0,0],"split_type":[0,0,0,0,0,0,0,0,0,0,0,0,0,0,0,0,0,0,0,0,0,0,0,0,0,0,0,0,0,0,0,0,0,0,0,0,0,0,0,0,0,0,0,0,0,0,0,0,0,0,0],"sum_hessian":[5.8930588E1,3.6284664E1,2.2645922E1,1.3051519E1,2.3233145E1,4.571327E0,1.8074594E1,5.979299E0,7.072221E0,2.046676E1,2.7663853E0,1.5146149E0,3.0567122E0,1.880813E0,1.619378E1,4.2610464E0,1.7182527E0,5.621603E0,1.4506178E0,1.713754E1,3.3292186E0,1.3411021E0,1.4252832E0,9.24153E0,6.9522514E0,2.676374E0,1.5846723E0,3.758682E0,1.8629208E0,1.5952537E1,1.1850046E0,2.0007584E0,1.3284602E0,3.4923341E0,5.749196E0,1.4634885E0,5.488763E0,1.2094041E0,1.46697E0,1.4538817E1,1.4137195E0,1.4909906E0,2.0013435E0,4.699777E0,1.049419E0,4.158481E0,1.3302819E0,9.459183E0,5.0796347E0,1.0180907E0,3.1403902E0],"tree_param":{"num_deleted":"0","num_feature":"14","num_nodes":"51","size_leaf_vector":"1"}},{"base_weights":[-4.6427734E-2,1.3461392E-1,-2.3188849E-1,-1.1399627E-1,5.320807E-1,-8.23127E-1,-3.9167233E-2,-4.487691E-1,2.701612E-1,7.515542E-1,-2.9948782E-2,4.1098455E-3,-1.0235645E0,5.2850807E-1,-1.7567731E-1,-7.780344E-1,1.3445538E-1,4.648638E-1,-8.402654E-2,-3.3799496E-2,9.064857E-1,4.4817486E-1,-1.2847678E-1,-2.2469735E-1,-5.7858195E-2,-5.14305E-2,8.26E-1,-6.798898E-1,5.3376406E-2,4.03168E-2,-2.1638465E-1,-1.1525624E-1,1.2972194E-1,-1.7452048E-2,6.663675E-1,6.4479105E-2,2.0260361E-1,1.3977455E-1,-5.31399E-3,2.7853195E-2,2.1352E-1,-1.908297E-1,-2.6649278E-1,1.7445654E-1,-1.3756965E-1,8.786857E-2,-8.52748E-2,7.668143E-4,1.7804742E-1,2.4388012E-2,-1.3028437E-1,3.291928E-1,-9.612085E-2,-6.420838E-2,9.695557E-2],"categories":[],"categories_nodes":[],"categories_segments":[],"categories_sizes":[],"default_left":[0,0,0,0,0,0,0,0,0,0,0,0,0,0,0,0,0,0,0,0,0,0,0,0,0,0,0,0,0,0,0,0,0,0,0,0,0,0,0,0,0,0,0,0,0,0,0,0,0,0,0,0,0,0,0],"id":21,"left_children":[1,3,5,7,9,11,13,15,17,19,21,-1,23,25,27,29,31,33,-1,-1,35,37,-1,-1,-1,-1,39,41,43,-1,-1,-1,-1,45,47,-1,-1,-1,-1,-1,-1,-1,49,51,-1,-1,-1,-1,-1,-1,-1,53,-1,-1,-1],"loss_changes":[2.0724087E0,3.1630006E0,3.431356E0,2.7111247E0,1.5344787E0,1.2762313E0,1.9507253E0,2.2432256E0,1.5395474E0,1.4158988E0,1.5774829E0,0E0,1.1648321E-1,1.3569943E0,2.3550842E0,2.3809614E0,2.1538534E0,8.1595933E-1,0E0,0E0,1.5472746E-1,3.8302964E-1,0E0,0E0,0E0,0E0,4.8005438E-1,4.6505332E-1,1.4422559E0,0E0,0E0,0E0,0E0,8.248867E-1,8.661623E-1,0E0,0E0,0E0,0E0,0E0,0E0,0E0,6.652398E-1,1.5227427E0,0E0,0E0,0E0,0E0,0E0,0E0,0E0,1.3173496E0,0E0,0E0,0E0],"parents":[2147483647,0,0,1,1,2,2,3,3,4,4,5,5,6,6,7,7,8,8,9,9,10,10,12,12,13,13,14,14,15,15,16,16,17,17,20,20,21,21,26,26,27,27,28,28,33,33,34,34,42,42,43,43,51,51],"right_children":[2,4,6,8,10,12,14,16,18,20,22,-1,24,26,28,30,32,34,-1,-1,36,38,-1,-1,-1,-1,40,42,44,-1,-1,-1,-1,46,48,-1,-1,-1,-1,-1,-1,-1,50,52,-1,-1,-1,-1,-1,-1,-1,54,-1,-1,-1],"split_conditions":[2.6505E3,2.459E3,3.565E3,1.0618266E2,1.0618563E2,3.382E3,3.4475E3,1.586E3,3.7692053E0,5.9336734E-1,4.1540292E-1,4.1098455E-3,3.1417558E-1,-4.2563215E-2,-2.8201746E-2,1.0612081E2,1.061374E2,3.884E3,-8.402654E-2,-3.3799496E-2,1.745E3,2.022E3,-1.2847678E-1,-2.2469735E-1,-5.7858195E-2,-5.14305E-2,1.0618738E2,2.14E3,1.0621196E2,4.03168E-2,-2.1638465E-1,-1.1525624E-1,1.2972194E-1,1.753E3,1.479E3,6.4479105E-2,2.0260361E-1,1.3977455E-1,-5.31399E-3,2.7853195E-2,2.1352E-1,-1.908297E-1,3.709E3,1.1683164E1,-1.3756965E-1,8.786857E-2,-8.52748E-2,7.668143E-4,1.7804742E-1,2.4388012E-2,-1.3028437E-1,8.376641E-2,-9.612085E-2,-6.420838E-2,9.695557E-2],"split_indices":[7,7,6,0,0,6,5,4,9,13,8,0,8,12,11,0,0,5,0,0,3,2,0,0,0,0,0,3,0,0,0,0,0,3,4,0,0,0,0,0,0,0,7,1,0,0,0,0,0,0,0,12,0,0,0],"split_type":[0,0,0,0,0,0,0,0,0,0,0,0,0,0,0,0,0,0,0,0,0,0,0,0,0,0,0,0,0,0,0,0,0,0,0,0,0,0,0,0,0,0,0,0,0,0,0,0,0,0,0,0,0,0,0],"sum_hessian":[5.9793007E1,3.0395716E1,2.9397291E1,1.9138212E1,1.12575035E1,6.422622E0,2.2974669E1,1.0136554E1,9.001658E0,7.853488E0,3.4040155E0,1.4052327E0,5.0173893E0,3.8970933E0,1.9077576E1,6.2653594E0,3.8711944E0,7.275984E0,1.7256747E0,1.1182755E0,6.735213E0,2.0622447E0,1.3417709E0,3.9498198E0,1.0675697E0,1.1075941E0,2.7894993E0,5.344517E0,1.3733058E1,1.5631217E0,4.7022376E0,1.5742335E0,2.2969608E0,2.413194E0,4.8627896E0,1.6600182E0,5.0751944E0,1.0406226E0,1.0216221E0,1.1362387E0,1.6532605E0,2.4265864E0,2.9179308E0,1.2462008E1,1.2710499E0,1.1047342E0,1.3084596E0,1.4850295E0,3.3777604E0,1.7924149E0,1.1255159E0,1.0483171E1,1.9788371E0,1.8187292E0,8.664442E0],"tree_param":{"num_deleted":"0","num_feature":"14","num_nodes":"55","size_leaf_vector":"1"}},{"base_weights":[9.905088E-3,9.145726E-2,-6.3024426E-1,4.0912053E-1,-7.155003E-2,-1.918941E-1,-1.7745896E-1,-2.4623807E-1,6.265713E-1,3.965663E-1,-2.39475E-1,-1.2765591E-1,8.989618E-2,-1.587191E-1,9.813386E-2,-3.443203E-2,7.574773E-1,-2.245493E-2,1.7882518E-1,-7.1908337E-1,-1.0421765E-3,8.49307E-1,-2.0153454E-2,5.229257E-1,-4.9934238E-1,5.7416532E-2,-1.0128282E0,-5.495361E-1,2.5905898E-1,9.9360776E-1,4.0359885E-1,-4.165138E-3,1.55281E-1,-4.5335796E-3,-1.3321279E-1,-7.716312E-2,9.800243E-2,-2.29018E-1,-5.278944E-2,3.2591987E-2,-2.5488746E-1,5.9517384E-1,-3.4133837E-1,2.2415636E-1,6.787729E-2,-6.565254E-2,1.863814E-1,9.897176E-2,-7.428238E-2,-4.2565834E-2,1.711159E-1,-1.7258061E-1,4.8380803E-2],"categories":[],"categories_nodes":[],"categories_segments":[],"categories_sizes":[],"default_left":[0,0,0,0,0,0,0,0,0,0,0,0,0,0,0,0,0,0,0,0,0,0,0,0,0,0,0,0,0,0,0,0,0,0,0,0,0,0,0,0,0,0,0,0,0,0,0,0,0,0,0,0,0],"id":22,"left_children":[1,3,5,7,9,-1,11,13,15,17,19,-1,-1,-1,-1,-1,21,23,-1,25,27,29,-1,31,33,35,37,39,41,43,45,-1,-1,-1,-1,-1,-1,-1,-1,47,-1,49,51,-1,-1,-1,-1,-1,-1,-1,-1,-1,-1],"loss_changes":[2.9650853E0,2.6324434E0,7.867458E-1,2.6050615E0,2.773538E0,0E0,1.4222158E0,2.407131E0,1.5100603E0,1.9741961E0,2.9383912E0,0E0,0E0,0E0,0E0,0E0,9.9367046E-1,1.8381368E0,0E0,2.004509E0,2.7344048E0,2.7523422E-1,0E0,4.7335994E-1,2.8263527E-1,8.1957495E-1,3.162899E-1,2.6429796E0,2.8274155E0,2.2356224E-1,1.9513457E0,0E0,0E0,0E0,0E0,0E0,0E0,0E0,0E0,1.004438E0,0E0,2.0129411E0,1.8218144E0,0E0,0E0,0E0,0E0,0E0,0E0,0E0,0E0,0E0,0E0],"parents":[2147483647,0,0,1,1,2,2,3,3,4,4,6,6,7,7,8,8,9,9,10,10,16,16,17,17,19,19,20,20,21,21,23,23,24,24,25,25,26,26,27,27,28,28,29,29,30,30,39,39,41,41,42,42],"right_children":[2,4,6,8,10,-1,12,14,16,18,20,-1,-1,-1,-1,-1,22,24,-1,26,28,30,-1,32,34,36,38,40,42,44,46,-1,-1,-1,-1,-1,-1,-1,-1,48,-1,50,52,-1,-1,-1,-1,-1,-1,-1,-1,-1,-1],"split_conditions":[2.224E3,3.0098504E-1,3.965E3,1.0203263E0,1.16252365E1,-1.918941E-1,-4.7838617E-2,2.364E3,1.0612863E2,1.0620085E2,1.1647729E1,-1.2765591E-1,8.989618E-2,-1.587191E-1,9.813386E-2,-3.443203E-2,1.9375E3,7.527744E-2,1.7882518E-1,1.0615455E2,1.0614114E2,1.0618887E2,-2.0153454E-2,1.1619537E1,3.3995E3,8.2699135E-2,2.767697E0,2.963882E-1,1.1677828E1,8.2217574E-1,1.998E3,-4.165138E-3,1.55281E-1,-4.5335796E-3,-1.3321279E-1,-7.716312E-2,9.800243E-2,-2.29018E-1,-5.278944E-2,1.0612176E2,-2.5488746E-1,2.248E3,2.1120563E0,2.2415636E-1,6.787729E-2,-6.565254E-2,1.863814E-1,9.897176E-2,-7.428238E-2,-4.2565834E-2,1.711159E-1,-1.7258061E-1,4.8380803E-2],"split_indices":[3,8,6,9,1,0,11,2,0,0,1,0,0,0,0,0,4,11,0,0,0,0,0,1,6,11,9,12,1,13,3,0,0,0,0,0,0,0,0,0,0,7,9,0,0,0,0,0,0,0,0,0,0],"split_type":[0,0,0,0,0,0,0,0,0,0,0,0,0,0,0,0,0,0,0,0,0,0,0,0,0,0,0,0,0,0,0,0,0,0,0,0,0,0,0,0,0,0,0,0,0,0,0,0,0,0,0,0,0],"sum_hessian":[5.4692226E1,4.927229E1,5.4199386E0,1.6197433E1,3.3074856E1,2.4902234E0,2.9297154E0,4.0024285E0,1.2195004E1,8.372809E0,2.4702045E1,1.6781414E0,1.251574E0,2.2524414E0,1.7499872E0,1.6728506E0,1.0522154E1,5.0634665E0,3.3093429E0,7.533172E0,1.7168873E1,9.514539E0,1.0076149E0,2.3170688E0,2.7463977E0,2.2884104E0,5.244762E0,5.164772E0,1.2004102E1,6.2589016E0,3.2556374E0,1.0285388E0,1.2885299E0,1.0060263E0,1.7403716E0,1.1837217E0,1.1046888E0,4.0078564E0,1.2369057E0,3.3941538E0,1.7706181E0,7.7013993E0,4.3027024E0,4.6431637E0,1.6157383E0,1.5236243E0,1.7320131E0,1.4780558E0,1.9160981E0,1.9216095E0,5.77979E0,2.0183232E0,2.2843792E0],"tree_param":{"num_deleted":"0","num_feature":"14","num_nodes":"53","size_leaf_vector":"1"}},{"base_weights":[4.4626284E-2,-4.9679168E-2,3.8755903E-1,6.0338967E-2,-5.879565E-1,7.942985E-3,7.568418E-1,2.8689852E-1,-1.8663685E-1,-8.22185E-1,5.6418926E-2,1.4034325E-1,-3.7524912E-1,1.7894799E-1,1.7410891E-2,-3.072473E-1,4.3123126E-1,-3.837307E-1,6.2968516E-1,-9.429203E-1,-3.415806E-2,8.108725E-2,-1.5210144E-1,-1.5599315E-1,1.19777046E-1,6.3905E-2,7.4298805E-1,-5.5688894E-1,3.127558E-1,-1.48478E-2,1.7959982E-1,-4.8948124E-2,-2.235701E-1,-1.09142244E-1,1.3125104E-1,-2.4779895E-1,1.6929391E-1,1.990285E-2,8.4383E-1,4.539567E-2,-6.9904155E-1,1.2148731E-1,-2.845079E-2,-1.0376567E-1,2.8995654E-2,1.8849055E-1,3.0409833E-2,-2.9416362E-2,-1.8255125E-1],"categories":[],"categories_nodes":[],"categories_segments":[],"categories_sizes":[],"default_left":[0,0,0,0,0,0,0,0,0,0,0,0,0,0,0,0,0,0,0,0,0,0,0,0,0,0,0,0,0,0,0,0,0,0,0,0,0,0,0,0,0,0,0,0,0,0,0,0,0],"id":23,"left_children":[1,3,5,7,9,11,13,15,17,19,-1,-1,21,-1,-1,23,25,27,29,31,-1,33,-1,-1,-1,35,37,39,41,-1,-1,-1,-1,-1,-1,43,-1,-1,45,-1,47,-1,-1,-1,-1,-1,-1,-1,-1],"loss_changes":[1.8050867E0,2.652785E0,1.6795355E0,2.1576023E0,1.7793832E0,2.108172E0,4.8405886E-1,1.8481174E0,3.2336857E0,3.2956743E-1,0E0,0E0,9.621415E-1,0E0,0E0,2.392126E0,1.8434262E0,2.0557187E0,8.212919E-1,3.4215164E-1,0E0,1.5291952E0,0E0,0E0,0E0,2.3257258E0,4.8948717E-1,1.5910239E0,5.887893E-1,0E0,0E0,0E0,0E0,0E0,0E0,8.1796515E-1,0E0,0E0,3.6883497E-1,0E0,1.1782293E0,0E0,0E0,0E0,0E0,0E0,0E0,0E0,0E0],"parents":[2147483647,0,0,1,1,2,2,3,3,4,4,5,5,6,6,7,7,8,8,9,9,12,12,15,15,16,16,17,17,18,18,19,19,21,21,25,25,26,26,27,27,28,28,35,35,38,38,40,40],"right_children":[2,4,6,8,10,12,14,16,18,20,-1,-1,22,-1,-1,24,26,28,30,32,-1,34,-1,-1,-1,36,38,40,42,-1,-1,-1,-1,-1,-1,44,-1,-1,46,-1,48,-1,-1,-1,-1,-1,-1,-1,-1],"split_conditions":[1.1683793E1,1.167213E1,1.06157776E2,1.0618887E2,3.715E3,1.0612176E2,2.2760334E0,1.1619537E1,1.0621469E2,4.3755E3,5.6418926E-2,1.4034325E-1,3.5135E3,1.7894799E-1,1.7410891E-2,1.0618738E2,1.809809E-1,4.44E3,2.381E3,3.325E3,-3.415806E-2,1.617E3,-1.5210144E-1,-1.5599315E-1,1.19777046E-1,1.0618105E2,1.8382353E0,1.766E3,3.734E3,-1.48478E-2,1.7959982E-1,-4.8948124E-2,-2.235701E-1,-1.09142244E-1,1.3125104E-1,1.9465E3,1.6929391E-1,1.990285E-2,3.460862E0,4.539567E-2,2.5248107E-1,1.2148731E-1,-2.845079E-2,-1.0376567E-1,2.8995654E-2,1.8849055E-1,3.0409833E-2,-2.9416362E-2,-1.8255125E-1],"split_indices":[1,1,0,0,6,0,9,1,0,5,0,0,6,0,0,0,12,5,7,6,0,4,0,0,0,0,9,3,6,0,0,0,0,0,0,3,0,0,9,0,8,0,0,0,0,0,0,0,0],"split_type":[0,0,0,0,0,0,0,0,0,0,0,0,0,0,0,0,0,0,0,0,0,0,0,0,0,0,0,0,0,0,0,0,0,0,0,0,0,0,0,0,0,0,0,0,0,0,0,0,0],"sum_hessian":[5.4219837E1,4.319616E1,1.1023677E1,3.6602837E1,6.593325E0,5.939493E0,5.084183E0,1.9006166E1,1.7596668E1,5.2381625E0,1.3551626E0,1.817554E0,4.121939E0,3.937633E0,1.1465503E0,3.4940724E0,1.55120945E1,1.4601251E1,2.9954178E0,4.041528E0,1.1966338E0,2.248329E0,1.8736101E0,2.3876834E0,1.1063892E0,7.674558E0,7.8375363E0,1.1854463E1,2.7467875E0,1.0262786E0,1.9691391E0,1.2903942E0,2.7511344E0,1.1003832E0,1.1479459E0,5.977146E0,1.6974121E0,1.3310329E0,6.506503E0,1.7281667E0,1.0126296E1,1.4637886E0,1.282999E0,3.3468118E0,2.6303344E0,5.3775086E0,1.1289945E0,3.297661E0,6.8286347E0],"tree_param":{"num_deleted":"0","num_feature":"14","num_nodes":"49","size_leaf_vector":"1"}},{"base_weights":[-3.0839121E-2,-1.3879143E-1,3.2903603E-3,-4.6301457E-1,4.9627487E-2,-7.62258E-1,7.508559E-2,3.9743873E-1,-7.999594E-2,-2.6528824E-2,-1.874554E-1,6.290825E-1,-4.2683762E-1,-4.531873E-1,7.773333E-2,3.6179084E-1,2.2324614E-1,-1.2746347E-1,-1.7969085E-2,1.09576546E-1,-6.0671175E-1,-1.743018E-1,1.5108688E-1,-9.570324E-2,6.107416E-1,-8.115564E-1,-2.2450037E-2,-5.3859353E-1,2.517188E-1,1.691129E-1,-1.9569743E-2,-1.8821885E-1,-2.447575E-3,1.06363915E-1,-1.4516644E-1,-4.0983767E-4,-1.4789748E-1,7.614766E-2,-5.993686E-2],"categories":[],"categories_nodes":[],"categories_segments":[],"categories_sizes":[],"default_left":[0,0,0,0,0,0,0,0,0,0,0,0,0,0,0,0,0,0,0,0,0,0,0,0,0,0,0,0,0,0,0,0,0,0,0,0,0,0,0],"id":24,"left_children":[1,-1,3,5,7,9,-1,11,13,-1,-1,15,17,19,21,23,-1,-1,-1,-1,25,-1,27,-1,29,31,33,35,37,-1,-1,-1,-1,-1,-1,-1,-1,-1,-1],"loss_changes":[1.290285E0,0E0,1.2139797E0,1.5605078E0,2.3329694E0,3.2451248E-1,0E0,2.9464836E0,2.2729788E0,0E0,0E0,1.0744009E0,2.0323628E-1,2.0906801E0,2.051774E0,2.1352768E0,0E0,0E0,0E0,0E0,1.225739E0,0E0,1.9712938E0,0E0,1.2867324E0,7.823615E-1,1.8388689E0,3.958372E-1,1.8046718E0,0E0,0E0,0E0,0E0,0E0,0E0,0E0,0E0,0E0,0E0],"parents":[2147483647,0,0,2,2,3,3,4,4,5,5,7,7,8,8,11,11,12,12,13,13,14,14,15,15,20,20,22,22,24,24,25,25,26,26,27,27,28,28],"right_children":[2,-1,4,6,8,10,-1,12,14,-1,-1,16,18,20,22,24,-1,-1,-1,-1,26,-1,28,-1,30,32,34,36,38,-1,-1,-1,-1,-1,-1,-1,-1,-1,-1],"split_conditions":[4.753598E-1,-1.3879143E-1,1.16157465E1,1.5928695E-1,1.1637564E1,1.2692703E0,7.508559E-2,3.738E3,1.586E3,-2.6528824E-2,-1.874554E-1,1.1632611E1,1.996E3,1.4375E3,1.0611423E2,1.6551725E0,2.2324614E-1,-1.2746347E-1,-1.7969085E-2,1.09576546E-1,2.4555E3,-1.743018E-1,3.268E3,-9.570324E-2,2.682409E-1,1.06207596E2,2.594E3,1.0616348E2,1.0621017E2,1.691129E-1,-1.9569743E-2,-1.8821885E-1,-2.447575E-3,1.06363915E-1,-1.4516644E-1,-4.0983767E-4,-1.4789748E-1,7.614766E-2,-5.993686E-2],"split_indices":[9,0,1,11,1,9,0,6,4,0,0,1,3,4,0,9,0,0,0,0,7,0,5,0,12,0,7,0,0,0,0,0,0,0,0,0,0,0,0],"split_type":[0,0,0,0,0,0,0,0,0,0,0,0,0,0,0,0,0,0,0,0,0,0,0,0,0,0,0,0,0,0,0,0,0,0,0,0,0,0,0],"sum_hessian":[5.5910954E1,1.7904462E0,5.4120506E1,4.0790863E0,5.004142E1,3.0731363E0,1.0059502E0,1.302529E1,3.7016132E1,1.050815E0,2.0223212E0,1.0352707E1,2.672582E0,1.0440486E1,2.6575645E1,7.810088E0,2.542619E0,1.0965203E0,1.5760616E0,1.046698E0,9.393788E0,1.1258235E0,2.5449821E1,1.5742481E0,6.2358403E0,6.6672077E0,2.7265801E0,2.6864095E0,2.2763412E1,4.538501E0,1.6973395E0,5.5847673E0,1.0824401E0,1.6613426E0,1.0652375E0,1.0070353E0,1.6793742E0,1.869791E1,4.0655017E0],"tree_param":{"num_deleted":"0","num_feature":"14","num_nodes":"39","size_leaf_vector":"1"}},{"base_weights":[-9.227046E-2,2.0750561E-1,-2.086024E-1,-1.2262709E-1,5.040971E-1,-6.0421556E-1,-2.553064E-2,-3.4688166E-1,8.681588E-2,3.460575E-2,7.971567E-1,-2.3431319E-1,-9.43893E-1,1.3340583E-1,-4.5619687E-1,-5.760457E-1,3.8322408E-2,-9.475291E-2,1.1618097E-1,3.231351E-1,2.0057784E-1,-6.4131147E-1,3.2366124E-1,-1.753647E-2,-1.1363953E0,3.761063E-1,-2.4242517E-1,4.988765E-2,-6.751877E-1,-1.6086362E-1,1.2712926E-2,-5.840381E-2,1.5489037E-1,1.1189624E-2,-1.9278717E-1,-8.981972E-3,1.13530576E-1,-2.561203E-1,-6.407224E-2,-1.4686498E-1,7.039462E-1,-1.8121348E-1,6.623008E-2,-9.121244E-1,1.4480841E-2,-1.4377715E-1,1.6336255E-1,1.871114E-1,-8.7171495E-2,1.1799564E-1,-3.6028215E-1,-2.286927E-1,-1.6467689E-2,1.2264358E-1,-4.6966057E-2,-1.8790208E-1,5.77653E-2],"categories":[],"categories_nodes":[],"categories_segments":[],"categories_sizes":[],"default_left":[0,0,0,0,0,0,0,0,0,0,0,0,0,0,0,0,0,0,0,0,0,0,0,0,0,0,0,0,0,0,0,0,0,0,0,0,0,0,0,0,0,0,0,0,0,0,0,0,0,0,0,0,0,0,0,0,0],"id":25,"left_children":[1,3,5,7,9,11,13,15,-1,17,19,21,23,25,27,29,-1,-1,-1,31,-1,33,35,-1,37,39,41,-1,43,-1,-1,-1,-1,-1,-1,-1,-1,-1,-1,45,47,-1,49,51,-1,-1,53,-1,-1,-1,55,-1,-1,-1,-1,-1,-1],"loss_changes":[1.9182035E0,1.5826257E0,2.8259254E0,1.1686416E0,1.125037E0,1.3327203E0,1.9681296E0,8.963214E-1,0E0,1.4596695E0,1.7449999E-1,1.8540809E0,9.085264E-1,2.0182428E0,1.3640767E0,7.398684E-1,0E0,0E0,0E0,1.0653377E0,0E0,1.0724635E0,3.6025825E-1,0E0,1.6757536E-1,2.3714995E0,1.8826095E0,0E0,1.1597798E0,0E0,0E0,0E0,0E0,0E0,0E0,0E0,0E0,0E0,0E0,1.1688415E0,2.599977E0,0E0,1.7773925E0,8.2001877E-1,0E0,0E0,9.780828E-1,0E0,0E0,0E0,1.9564352E0,0E0,0E0,0E0,0E0,0E0,0E0],"parents":[2147483647,0,0,1,1,2,2,3,3,4,4,5,5,6,6,7,7,9,9,10,10,11,11,12,12,13,13,14,14,15,15,19,19,21,21,22,22,24,24,25,25,26,26,28,28,39,39,40,40,42,42,43,43,46,46,50,50],"right_children":[2,4,6,8,10,12,14,16,-1,18,20,22,24,26,28,30,-1,-1,-1,32,-1,34,36,-1,38,40,42,-1,44,-1,-1,-1,-1,-1,-1,-1,-1,-1,-1,46,48,-1,50,52,-1,-1,54,-1,-1,-1,56,-1,-1,-1,-1,-1,-1],"split_conditions":[3.554E3,3.268E3,3.823E3,3.077E3,1.0331754E-1,1.8886472E0,4.704243E-1,1.1685133E1,8.681588E-2,1.0619716E2,1.7065E3,1.429186E0,1.0614085E2,3.762E3,2.159E3,2.7731094E-1,3.8322408E-2,-9.475291E-2,1.1618097E-1,3.460862E0,2.0057784E-1,3.664E3,1.733E3,-1.753647E-2,3.615E3,1.588E3,1.689E3,4.988765E-2,2.478E3,-1.6086362E-1,1.2712926E-2,-5.840381E-2,1.5489037E-1,1.1189624E-2,-1.9278717E-1,-8.981972E-3,1.13530576E-1,-2.561203E-1,-6.407224E-2,3.99E3,1.84E3,-1.8121348E-1,2.282E3,1.06189026E2,1.4480841E-2,-1.4377715E-1,2.9196218E-1,1.871114E-1,-8.7171495E-2,1.1799564E-1,2.352E3,-2.286927E-1,-1.6467689E-2,1.2264358E-1,-4.6966057E-2,-1.8790208E-1,5.77653E-2],"split_indices":[5,5,5,7,12,9,8,1,0,0,4,9,0,6,7,8,0,0,0,9,0,5,4,0,6,4,4,0,7,0,0,0,0,0,0,0,0,0,0,5,4,0,2,0,0,0,12,0,0,0,2,0,0,0,0,0,0],"split_type":[0,0,0,0,0,0,0,0,0,0,0,0,0,0,0,0,0,0,0,0,0,0,0,0,0,0,0,0,0,0,0,0,0,0,0,0,0,0,0,0,0,0,0,0,0,0,0,0,0,0,0,0,0,0,0,0,0],"sum_hessian":[5.276333E1,1.4532012E1,3.8231316E1,7.154719E0,7.377293E0,1.1367033E1,2.6864283E1,5.3689017E0,1.785817E0,3.2648993E0,4.112394E0,6.25034E0,5.116693E0,2.0126774E1,6.73751E0,3.7172394E0,1.6516622E0,1.7599317E0,1.5049675E0,2.0226736E0,2.0897205E0,3.5277607E0,2.722579E0,1.2063928E0,3.9103E0,1.222895E1,7.897824E0,1.5628002E0,5.17471E0,2.549742E0,1.1674974E0,1.0053384E0,1.0173352E0,1.3774292E0,2.1503315E0,1.4094365E0,1.3131425E0,2.839259E0,1.0710413E0,4.9248443E0,7.3041053E0,1.8927258E0,6.0050983E0,3.762246E0,1.4124639E0,1.2685363E0,3.6563077E0,6.219486E0,1.0846194E0,2.5232892E0,3.481809E0,2.646419E0,1.115827E0,1.4632311E0,2.1930766E0,1.6035262E0,1.8782825E0],"tree_param":{"num_deleted":"0","num_feature":"14","num_nodes":"57","size_leaf_vector":"1"}},{"base_weights":[-1.7581834E-2,1.7213653E-1,-1.3419305E-1,-1.0879459E-1,4.0559137E-1,-7.280592E-1,-1.6485378E-2,5.365768E-1,-4.2547032E-1,6.0354453E-1,-3.0299792E-1,-2.094671E-1,4.822112E-3,-1.1723463E-1,5.382431E-1,2.924876E-2,1.4386295E-1,8.7548174E-2,-7.4507624E-1,9.403273E-1,2.7888E-1,-1.1666211E-1,2.5942355E-2,3.3845775E-2,-6.452885E-1,1.5042852E-1,-1.2578842E-2,1.7050253E-2,-9.460367E-1,4.055169E-2,2.3349576E-1,-3.3624572E-1,7.1085775E-1,2.688557E-1,-4.5022157E-1,4.94281E-2,-9.693441E-1,-5.4466534E-2,-2.1578299E-1,2.240501E-2,-1.2268721E-1,1.7434481E-1,4.8548054E-2,5.2598625E-1,-3.174608E-1,-9.4547164E-1,4.823319E-1,-3.2539554E-2,-2.706847E-1,4.891563E-2,1.7878763E-1,-1.0297301E-1,3.6894824E-2,-1.4252499E-2,-2.31885E-1,1.258157E-1,1.8896831E-2],"categories":[],"categories_nodes":[],"categories_segments":[],"categories_sizes":[],"default_left":[0,0,0,0,0,0,0,0,0,0,0,0,0,0,0,0,0,0,0,0,0,0,0,0,0,0,0,0,0,0,0,0,0,0,0,0,0,0,0,0,0,0,0,0,0,0,0,0,0,0,0,0,0,0,0,0,0],"id":26,"left_children":[1,3,5,7,9,11,13,15,17,19,21,-1,-1,23,25,-1,-1,-1,27,29,31,-1,-1,33,35,-1,-1,-1,37,-1,-1,39,41,43,45,-1,47,-1,-1,-1,-1,-1,-1,49,51,53,55,-1,-1,-1,-1,-1,-1,-1,-1,-1,-1],"loss_changes":[1.1473434E0,1.3415742E0,2.2272878E0,2.2244003E0,1.7280364E0,1.2922664E0,1.6144813E0,1.5566957E-1,2.287631E0,7.1578217E-1,4.4817922E-1,0E0,0E0,1.961503E0,6.1891246E-1,0E0,0E0,0E0,1.0081918E0,4.2821074E-1,1.8269377E0,0E0,0E0,2.3797097E0,1.818152E0,0E0,0E0,0E0,1.1422682E-1,0E0,0E0,4.5940727E-1,7.6939344E-2,2.2763762E0,3.6255872E0,0E0,1.0833869E0,0E0,0E0,0E0,0E0,0E0,0E0,8.2743883E-1,5.7941103E-1,8.189397E-1,1.1373383E-1,0E0,0E0,0E0,0E0,0E0,0E0,0E0,0E0,0E0,0E0],"parents":[2147483647,0,0,1,1,2,2,3,3,4,4,5,5,6,6,7,7,8,8,9,9,10,10,13,13,14,14,18,18,19,19,20,20,23,23,24,24,28,28,31,31,32,32,33,33,34,34,36,36,43,43,44,44,45,45,46,46],"right_children":[2,4,6,8,10,12,14,16,18,20,22,-1,-1,24,26,-1,-1,-1,28,30,32,-1,-1,34,36,-1,-1,-1,38,-1,-1,40,42,44,46,-1,48,-1,-1,-1,-1,-1,-1,50,52,54,56,-1,-1,-1,-1,-1,-1,-1,-1,-1,-1],"split_conditions":[3.664E3,3.45E3,8.3042866E-1,2.316E3,3.9705E3,2.44E3,2.096E3,3.13E3,1.4820307E0,1.1644198E1,5.8802456E-1,-2.094671E-1,4.822112E-3,2.8185E3,2.191E3,2.924876E-2,1.4386295E-1,8.7548174E-2,1.0612779E2,1.1628512E1,3.657E3,-1.1666211E-1,2.5942355E-2,1.0619412E2,1.6755E3,1.5042852E-1,-1.2578842E-2,1.7050253E-2,1.579E3,4.055169E-2,2.3349576E-1,2.869E3,1.0617098E2,1.4421031E-1,4.512E3,4.94281E-2,1.105428E0,-5.4466534E-2,-2.1578299E-1,2.240501E-2,-1.2268721E-1,1.7434481E-1,4.8548054E-2,4.208E3,1.6875E3,1.1630452E1,2.5899036E0,-3.2539554E-2,-2.706847E-1,4.891563E-2,1.7878763E-1,-1.0297301E-1,3.6894824E-2,-1.4252499E-2,-2.31885E-1,1.258157E-1,1.8896831E-2],"split_indices":[5,6,13,7,6,2,2,5,9,1,13,0,0,7,3,0,0,0,0,1,6,0,0,0,4,0,0,0,4,0,0,7,0,11,5,0,13,0,0,0,0,0,0,5,2,1,9,0,0,0,0,0,0,0,0,0,0],"split_type":[0,0,0,0,0,0,0,0,0,0,0,0,0,0,0,0,0,0,0,0,0,0,0,0,0,0,0,0,0,0,0,0,0,0,0,0,0,0,0,0,0,0,0,0,0,0,0,0,0,0,0,0,0,0,0,0,0],"sum_hessian":[4.981721E1,1.8782776E1,3.1034435E1,8.766939E0,1.0015838E1,4.2759295E0,2.6758505E1,2.6572247E0,6.109714E0,7.9446473E0,2.0711908E0,2.726277E0,1.5496522E0,2.331307E1,3.4454346E0,1.42139E0,1.2358346E0,1.551014E0,4.5587E0,2.9687665E0,4.975881E0,1.0457225E0,1.0254682E0,1.8854542E1,4.458529E0,2.3559353E0,1.0894992E0,1.0005234E0,3.5581765E0,1.1446524E0,1.824114E0,2.1442027E0,2.8316784E0,1.299176E1,5.8627815E0,1.250921E0,3.207608E0,1.0885619E0,2.4696147E0,1.0469446E0,1.0972582E0,1.4657798E0,1.3658985E0,9.102662E0,3.8890982E0,3.8201606E0,2.0426207E0,1.4938397E0,1.7137684E0,6.1011944E0,3.0014675E0,2.7728233E0,1.1162748E0,1.0132239E0,2.8069367E0,1.0306789E0,1.0119419E0],"tree_param":{"num_deleted":"0","num_feature":"14","num_nodes":"57","size_leaf_vector":"1"}},{"base_weights":[-7.335124E-2,2.951045E-1,-1.6560504E-1,-1.1358883E-1,4.5893788E-1,-2.7854806E-1,3.1758517E-1,1.6388957E-1,1.6119753E-1,2.0577291E-2,-5.220914E-1,7.511618E-1,-2.511098E-1,4.7644013E-1,-1.20529056E-1,-1.9730368E-1,6.2289566E-1,-6.3652647E-1,8.829641E-2,4.289053E-2,1.697346E-1,-5.016204E-1,6.0533494E-2,-2.103335E-2,1.653371E-1,6.5770306E-2,-5.7528687E-1,1.6278332E-1,2.173373E-2,-8.043457E-1,-6.5577745E-2,-1.5141997E-1,1.2776172E-3,-1.05292656E-1,3.2070023E-1,-7.114647E-1,-2.7553765E-2,-9.8530865E-1,-3.1230345E-1,-4.16825E-1,1.2172862E-1,1.1874125E-1,-7.678403E-3,-2.5000617E-2,-1.7671335E-1,-2.2186668E-1,-7.125115E-2,-1.4352834E-1,6.725532E-2,2.9672464E-2,-1.393234E-1],"categories":[],"categories_nodes":[],"categories_segments":[],"categories_sizes":[],"default_left":[0,0,0,0,0,0,0,0,0,0,0,0,0,0,0,0,0,0,0,0,0,0,0,0,0,0,0,0,0,0,0,0,0,0,0,0,0,0,0,0,0,0,0,0,0,0,0,0,0,0,0],"id":27,"left_children":[1,3,5,-1,7,9,11,13,-1,15,17,19,21,23,-1,25,27,29,-1,-1,-1,31,-1,-1,-1,33,35,-1,-1,37,39,-1,-1,-1,41,43,-1,45,47,49,-1,-1,-1,-1,-1,-1,-1,-1,-1,-1,-1],"loss_changes":[1.838687E0,1.8023252E0,2.4215481E0,0E0,8.6286783E-1,2.573949E0,2.301005E0,1.8460966E0,0E0,2.3214016E0,2.4237323E0,8.5510254E-2,7.699194E-1,1.1422998E0,0E0,1.3366694E0,3.7231874E-1,1.6507564E0,0E0,0E0,0E0,4.5182502E-1,0E0,0E0,0E0,1.4670912E0,2.2745955E-1,0E0,0E0,9.0782833E-1,1.4679672E0,0E0,0E0,0E0,6.730347E-1,2.8580558E-1,0E0,3.472681E-1,1.5912228E0,7.3030764E-1,0E0,0E0,0E0,0E0,0E0,0E0,0E0,0E0,0E0,0E0,0E0],"parents":[2147483647,0,0,1,1,2,2,4,4,5,5,6,6,7,7,9,9,10,10,11,11,12,12,13,13,15,15,16,16,17,17,21,21,25,25,26,26,29,29,30,30,34,34,35,35,37,37,38,38,39,39],"right_children":[2,4,6,-1,8,10,12,14,-1,16,18,20,22,24,-1,26,28,30,-1,-1,-1,32,-1,-1,-1,34,36,-1,-1,38,40,-1,-1,-1,42,44,-1,46,48,50,-1,-1,-1,-1,-1,-1,-1,-1,-1,-1,-1],"split_conditions":[1.6205E3,2.048E3,1.1683793E1,-1.1358883E-1,1.4406393E0,1.775148E-2,1.1691172E1,1.3306055E0,1.6119753E-1,1.1427908E-1,1.858E3,1.858E3,1.0616237E2,3.4160624E0,-1.20529056E-1,4.007E3,1.0619336E2,1.0620422E2,8.829641E-2,4.289053E-2,1.697346E-1,2.054E3,6.0533494E-2,-2.103335E-2,1.653371E-1,2.899E3,2.458E3,1.6278332E-1,2.173373E-2,2.3753846E0,4.07713E-1,-1.5141997E-1,1.2776172E-3,-1.05292656E-1,1.1646419E1,2.194E3,-2.7553765E-2,4.512E3,2.529E3,1.0621017E2,1.2172862E-1,1.1874125E-1,-7.678403E-3,-2.5000617E-2,-1.7671335E-1,-2.2186668E-1,-7.125115E-2,-1.4352834E-1,6.725532E-2,2.9672464E-2,-1.393234E-1],"split_indices":[2,7,1,0,13,11,1,13,0,12,4,2,0,9,0,6,0,0,0,0,0,2,0,0,0,7,2,0,0,9,8,0,0,0,1,2,0,5,7,0,0,0,0,0,0,0,0,0,0,0,0],"split_type":[0,0,0,0,0,0,0,0,0,0,0,0,0,0,0,0,0,0,0,0,0,0,0,0,0,0,0,0,0,0,0,0,0,0,0,0,0,0,0,0,0,0,0,0,0,0,0,0,0,0,0],"sum_hessian":[5.1654903E1,9.903225E0,4.175168E1,1.1864731E0,8.716752E0,3.4184715E1,7.566963E0,5.5070806E0,3.209671E0,1.5752568E1,1.8432146E1,4.1114874E0,3.455476E0,4.180822E0,1.3262587E0,1.2061795E1,3.690774E0,1.6778877E1,1.6532679E0,1.1240252E0,2.9874623E0,2.4440513E0,1.0114247E0,1.8344024E0,2.3464193E0,7.5989614E0,4.4628334E0,2.266162E0,1.424612E0,1.2651444E1,4.1274333E0,1.2999651E0,1.1440862E0,1.9661721E0,5.632789E0,2.925982E0,1.5368515E0,8.516694E0,4.134751E0,2.964692E0,1.162741E0,2.8287954E0,2.8039935E0,1.0555115E0,1.8704705E0,6.4763184E0,2.0403752E0,2.478992E0,1.6557587E0,1.1372191E0,1.8274732E0],"tree_param":{"num_deleted":"0","num_feature":"14","num_nodes":"51","size_leaf_vector":"1"}},{"base_weights":[-1.2751107E-1,-1.7093107E-1,-8.7717496E-2,4.9804088E-1,-1.529518E-1,-4.822145E-2,1.7182954E-1,-2.7039403E-1,1.1148547E-1,-3.363736E-1,1.920775E-1,7.3217154E-1,-1.1805532E-1,-6.9770014E-1,-1.8488374E-1,-5.184541E-2,1.1483852E-1,1.7231604E-1,5.15307E-2,-6.1822814E-1,2.8346244E-1,9.4750235E-3,-8.5411197E-1,-2.972547E-1,4.4294867E-1,-8.2794404E-1,-1.3525578E-2,-5.5509128E-2,4.6706006E-1,-2.038102E-1,-5.97591E-2,-5.058501E-3,-9.818485E-2,-1.3726795E-2,1.4252347E-1,-4.917102E-2,-1.9178051E-1,1.5409426E-1,-3.2952238E-2],"categories":[],"categories_nodes":[],"categories_segments":[],"categories_sizes":[],"default_left":[0,0,0,0,0,0,0,0,0,0,0,0,0,0,0,0,0,0,0,0,0,0,0,0,0,0,0,0,0,0,0,0,0,0,0,0,0,0,0],"id":28,"left_children":[1,-1,3,5,7,-1,-1,9,11,13,15,17,19,21,23,-1,-1,-1,-1,25,27,-1,29,31,33,35,-1,-1,37,-1,-1,-1,-1,-1,-1,-1,-1,-1,-1],"loss_changes":[1.3693521E0,0E0,1.9271188E0,1.5654415E0,1.407496E0,0E0,0E0,1.0106239E0,2.1305609E0,1.376039E0,9.2614675E-1,2.4394512E-2,2.4516628E0,9.4502115E-1,1.5944332E0,0E0,0E0,0E0,0E0,5.6313825E-1,8.47879E-1,0E0,2.8791046E-1,9.4537556E-1,5.3854764E-1,5.346012E-2,0E0,0E0,1.2055793E0,0E0,0E0,0E0,0E0,0E0,0E0,0E0,0E0,0E0,0E0],"parents":[2147483647,0,0,2,2,3,3,4,4,7,7,8,8,9,9,10,10,11,11,12,12,13,13,14,14,19,19,20,20,22,22,23,23,24,24,25,25,28,28],"right_children":[2,-1,4,6,8,-1,-1,10,12,14,16,18,20,22,24,-1,-1,-1,-1,26,28,-1,30,32,34,36,-1,-1,38,-1,-1,-1,-1,-1,-1,-1,-1,-1,-1],"split_conditions":[1.0611423E2,-1.7093107E-1,1.0612221E2,3.662E3,1.1667742E1,-4.822145E-2,1.7182954E-1,1.06214325E2,2.259267E-1,7.758353E-1,1.871E3,3.3875E3,3.7245E3,3.199E3,1.843E3,-5.184541E-2,1.1483852E-1,1.7231604E-1,5.15307E-2,1.0617478E2,1.623E3,9.4750235E-3,3.965E3,4.072E3,1.061876E2,7.215014E-1,-1.3525578E-2,-5.5509128E-2,2.074E3,-2.038102E-1,-5.97591E-2,-5.058501E-3,-9.818485E-2,-1.3726795E-2,1.4252347E-1,-4.917102E-2,